{"learner":{"attributes":{"scikit_learn":"{\"_estimator_type\": \"classifier\"}"},"feature_names":["avg_earnings_per_hour_online","trip_utilization_rate","surge_reliance_score","premium_trip_ratio","quest_completion_rate","cancellation_rate","acceptance_rate","pro_tier_status","cluster_label"],"feature_types":["float","float","float","float","float","float","float","int","c"],"gradient_booster":{"model":{"cats":{"enc":[{"offsets":[],"values":[]},{"offsets":[],"values":[]},{"offsets":[],"values":[]},{"offsets":[],"values":[]},{"offsets":[],"values":[]},{"offsets":[],"values":[]},{"offsets":[],"values":[]},{"offsets":[],"values":[]},{"type":15,"values":[0,1,2,3]}],"feature_segments":[0,0,0,0,0,0,0,0,0,4],"sorted_idx":[0,1,2,3]},"gbtree_model_param":{"num_parallel_tree":"1","num_trees":"200"},"iteration_indptr":[0,1,2,3,4,5,6,7,8,9,10,11,12,13,14,15,16,17,18,19,20,21,22,23,24,25,26,27,28,29,30,31,32,33,34,35,36,37,38,39,40,41,42,43,44,45,46,47,48,49,50,51,52,53,54,55,56,57,58,59,60,61,62,63,64,65,66,67,68,69,70,71,72,73,74,75,76,77,78,79,80,81,82,83,84,85,86,87,88,89,90,91,92,93,94,95,96,97,98,99,100,101,102,103,104,105,106,107,108,109,110,111,112,113,114,115,116,117,118,119,120,121,122,123,124,125,126,127,128,129,130,131,132,133,134,135,136,137,138,139,140,141,142,143,144,145,146,147,148,149,150,151,152,153,154,155,156,157,158,159,160,161,162,163,164,165,166,167,168,169,170,171,172,173,174,175,176,177,178,179,180,181,182,183,184,185,186,187,188,189,190,191,192,193,194,195,196,197,198,199,200],"tree_info":[0,0,0,0,0,0,0,0,0,0,0,0,0,0,0,0,0,0,0,0,0,0,0,0,0,0,0,0,0,0,0,0,0,0,0,0,0,0,0,0,0,0,0,0,0,0,0,0,0,0,0,0,0,0,0,0,0,0,0,0,0,0,0,0,0,0,0,0,0,0,0,0,0,0,0,0,0,0,0,0,0,0,0,0,0,0,0,0,0,0,0,0,0,0,0,0,0,0,0,0,0,0,0,0,0,0,0,0,0,0,0,0,0,0,0,0,0,0,0,0,0,0,0,0,0,0,0,0,0,0,0,0,0,0,0,0,0,0,0,0,0,0,0,0,0,0,0,0,0,0,0,0,0,0,0,0,0,0,0,0,0,0,0,0,0,0,0,0,0,0,0,0,0,0,0,0,0,0,0,0,0,0,0,0,0,0,0,0,0,0,0,0,0,0,0,0,0,0,0,0],"trees":[{"base_weights":[3.6788624E-8,9.3858147E-1,-7.161862E-1,1.2081765E0,3.4217948E-1,-2.2430696E-1,-1.0882353E0,-7.472129E-3,2.4988833E-1,9.8198436E-2,-4.3925874E-2,-1.2969704E-1,2.7274733E-2,-2.46658E-1,-3.582458E-2],"categories":[],"categories_nodes":[],"categories_segments":[],"categories_sizes":[],"default_left":[0,0,0,0,0,0,0,0,0,0,0,0,0,0,0],"id":0,"left_children":[1,3,5,7,9,11,13,-1,-1,-1,-1,-1,-1,-1,-1],"loss_changes":[1.1998755E2,8.287483E0,1.608715E1,2.9982834E0,4.255468E0,9.482146E0,5.0500793E0,0E0,0E0,0E0,0E0,0E0,0E0,0E0,0E0],"parents":[2147483647,0,0,1,1,2,2,3,3,4,4,5,5,6,6],"right_children":[2,4,6,8,10,12,14,-1,-1,-1,-1,-1,-1,-1,-1],"split_conditions":[1.4032944E1,3.8755345E-1,1.7466995E1,2.247191E-1,1.6153847E-1,5.2341974E-1,3.2414764E1,-7.472129E-3,2.4988833E-1,9.8198436E-2,-4.3925874E-2,-1.2969704E-1,2.7274733E-2,-2.46658E-1,-3.582458E-2],"split_indices":[0,1,0,6,5,1,0,0,0,0,0,0,0,0,0],"split_type":[0,0,0,0,0,0,0,0,0,0,0,0,0,0,0],"sum_hessian":[1.585E2,6.7255104E1,9.1244896E1,3.9253403E1,2.8001701E1,4.619728E1,4.504762E1,1.2891157E0,3.7964287E1,2.3134354E1,4.867347E0,1.7562925E1,2.8634354E1,3.577381E1,9.273809E0],"tree_param":{"num_deleted":"0","num_feature":"9","num_nodes":"15","size_leaf_vector":"1"}},{"base_weights":[-5.255768E-3,7.965735E-1,-6.152078E-1,9.8065907E-1,1.8513471E-1,-1.8593007E-1,-9.234909E-1,-7.3014908E-3,2.0219807E-1,-6.430896E-2,7.216812E-2,-8.2427256E-2,7.406727E-2,-2.0144914E-1,-5.5919695E-3],"categories":[],"categories_nodes":[],"categories_segments":[],"categories_sizes":[],"default_left":[0,0,0,0,0,0,0,0,0,0,0,0,0,0,0],"id":1,"left_children":[1,3,5,7,9,11,13,-1,-1,-1,-1,-1,-1,-1,-1],"loss_changes":[8.669134E1,6.807514E0,1.1599476E1,2.1139374E0,3.8359578E0,8.394075E0,3.9220161E0,0E0,0E0,0E0,0E0,0E0,0E0,0E0,0E0],"parents":[2147483647,0,0,1,1,2,2,3,3,4,4,5,5,6,6],"right_children":[2,4,6,8,10,12,14,-1,-1,-1,-1,-1,-1,-1,-1],"split_conditions":[1.4032944E1,1.1955135E1,1.7384398E1,2.247191E-1,1.2090305E1,5.2810335E-1,5.722111E-1,-7.3014908E-3,2.0219807E-1,-6.430896E-2,7.216812E-2,-8.2427256E-2,7.406727E-2,-2.0144914E-1,-5.5919695E-3],"split_indices":[0,0,0,6,0,1,1,0,0,0,0,0,0,0,0],"split_type":[0,0,0,0,0,0,0,0,0,0,0,0,0,0,0],"sum_hessian":[1.572348E2,6.661051E1,9.06243E1,4.6555515E1,2.0054993E1,4.457947E1,4.6044823E1,1.2890975E0,4.526642E1,3.026723E0,1.702827E1,3.353391E1,1.1045565E1,4.0966E1,5.078821E0],"tree_param":{"num_deleted":"0","num_feature":"9","num_nodes":"15","size_leaf_vector":"1"}},{"base_weights":[-4.908086E-3,6.7850095E-1,-5.215163E-1,8.5772115E-1,1.1085472E-1,-1.5836224E-1,-8.046075E-1,1.8062349E-1,-1.9914538E-2,-6.171391E-2,7.004848E-2,-1.0350146E-1,2.7485803E-2,-1.884995E-1,-1.3186215E-2],"categories":[],"categories_nodes":[],"categories_segments":[],"categories_sizes":[],"default_left":[0,0,0,0,0,0,0,0,0,0,0,0,0,0,0],"id":2,"left_children":[1,3,5,7,9,11,13,-1,-1,-1,-1,-1,-1,-1,-1],"loss_changes":[6.1592735E1,6.6929283E0,8.934336E0,3.3164139E0,4.0440793E0,6.654785E0,4.812641E0,0E0,0E0,0E0,0E0,0E0,0E0,0E0,0E0],"parents":[2147483647,0,0,1,1,2,2,3,3,4,4,5,5,6,6],"right_children":[2,4,6,8,10,12,14,-1,-1,-1,-1,-1,-1,-1,-1],"split_conditions":[1.4032944E1,6.012146E-1,1.7466995E1,4.1368464E-1,6.1516035E-1,5.2341974E-1,3.2414764E1,1.8062349E-1,-1.9914538E-2,-6.171391E-2,7.004848E-2,-1.0350146E-1,2.7485803E-2,-1.884995E-1,-1.3186215E-2],"split_indices":[0,6,0,1,6,1,0,0,0,0,0,0,0,0,0],"split_type":[0,0,0,0,0,0,0,0,0,0,0,0,0,0,0],"sum_hessian":[1.5443413E2,6.51349E1,8.9299225E1,4.5621056E1,1.951385E1,4.5949055E1,4.3350166E1,4.4095898E1,1.5251573E0,6.0405045E0,1.3473345E1,1.7366829E1,2.8582226E1,3.4205666E1,9.144498E0],"tree_param":{"num_deleted":"0","num_feature":"9","num_nodes":"15","size_leaf_vector":"1"}},{"base_weights":[-1.0760601E-2,5.8165747E-1,-4.5511273E-1,8.0213195E-1,1.5568855E-1,-1.3221398E-1,-6.980048E-1,2.263317E-3,1.7444554E-1,5.939732E-2,-5.20688E-2,-8.4825456E-2,3.516858E-2,-4.418048E-2,-1.8462773E-1],"categories":[],"categories_nodes":[],"categories_segments":[],"categories_sizes":[],"default_left":[0,0,0,0,0,0,0,0,0,0,0,0,0,0,0],"id":3,"left_children":[1,3,5,7,9,11,13,-1,-1,-1,-1,-1,-1,-1,-1],"loss_changes":[4.4964855E1,5.6340694E0,6.721451E0,2.4447956E0,2.9719627E0,5.6179056E0,3.684538E0,0E0,0E0,0E0,0E0,0E0,0E0,0E0,0E0],"parents":[2147483647,0,0,1,1,2,2,3,3,4,4,5,5,6,6],"right_children":[2,4,6,8,10,12,14,-1,-1,-1,-1,-1,-1,-1,-1],"split_conditions":[1.4032944E1,3.8755345E-1,1.7384398E1,1.4936006E-1,1.6153847E-1,5.244062E-1,1.956849E-2,2.263317E-3,1.7444554E-1,5.939732E-2,-5.20688E-2,-8.4825456E-2,3.516858E-2,-4.418048E-2,-1.8462773E-1],"split_indices":[0,1,0,1,5,1,5,0,0,0,0,0,0,0,0],"split_type":[0,0,0,0,0,0,0,0,0,0,0,0,0,0,0],"sum_hessian":[1.507556E2,6.3288387E1,8.746721E1,3.5884438E1,2.7403952E1,4.4179142E1,4.3288067E1,3.867377E0,3.201706E1,2.2592329E1,4.8116236E0,2.0749338E1,2.3429802E1,2.0229616E1,2.305845E1],"tree_param":{"num_deleted":"0","num_feature":"9","num_nodes":"15","size_leaf_vector":"1"}},{"base_weights":[-1.4609296E-2,6.611188E-1,-3.1613094E-1,7.2635585E-1,3.288384E-2,-6.294858E-2,-6.3053626E-1,1.3946783E-3,1.579082E-1,3.7166324E-2,-3.449255E-2,1.3392297E-2,-8.715704E-2,-1.5269282E-1,-1.6549154E-3],"categories":[],"categories_nodes":[],"categories_segments":[],"categories_sizes":[],"default_left":[0,0,0,0,0,0,0,0,0,0,0,0,0,0,0],"id":4,"left_children":[1,3,5,7,9,11,13,-1,-1,-1,-1,-1,-1,-1,-1],"loss_changes":[3.4082848E1,1.8793259E0,8.784356E0,2.0515995E0,8.0215764E-1,3.9244287E0,4.100769E0,0E0,0E0,0E0,0E0,0E0,0E0,0E0,0E0],"parents":[2147483647,0,0,1,1,2,2,3,3,4,4,5,5,6,6],"right_children":[2,4,6,8,10,12,14,-1,-1,-1,-1,-1,-1,-1,-1],"split_conditions":[1.1955135E1,6.06357E-1,1.7466995E1,2.52809E-1,3.8921818E-1,9.3333334E-1,3.2414764E1,1.3946783E-3,1.579082E-1,3.7166324E-2,-3.449255E-2,1.3392297E-2,-8.715704E-2,-1.5269282E-1,-1.6549154E-3],"split_indices":[0,6,0,6,1,4,0,0,0,0,0,0,0,0,0],"split_type":[0,0,0,0,0,0,0,0,0,0,0,0,0,0,0],"sum_hessian":[1.4702269E2,4.168285E1,1.0533985E2,3.634669E1,5.336158E0,6.499956E1,4.034029E1,3.8311777E0,3.2515514E1,3.6029348E0,1.733223E0,5.4287712E1,1.0711845E1,3.1369865E1,8.970425E0],"tree_param":{"num_deleted":"0","num_feature":"9","num_nodes":"15","size_leaf_vector":"1"}},{"base_weights":[-1.6226556E-2,5.8471304E-1,-2.7840707E-1,6.7372334E-1,5.1916733E-2,-6.0345694E-2,-5.572466E-1,-1.6701635E-3,1.4872436E-1,3.962612E-2,-3.0633325E-2,1.1132754E-2,-7.858516E-2,-2.414566E-2,-1.6043863E-1],"categories":[],"categories_nodes":[],"categories_segments":[],"categories_sizes":[],"default_left":[0,0,0,0,0,0,0,0,0,0,0,0,0,0,0],"id":5,"left_children":[1,3,5,7,9,11,13,-1,-1,-1,-1,-1,-1,-1,-1],"loss_changes":[2.5769547E1,2.0105228E0,6.5624094E0,2.0554485E0,8.4200007E-1,3.1078448E0,4.225401E0,0E0,0E0,0E0,0E0,0E0,0E0,0E0,0E0],"parents":[2147483647,0,0,1,1,2,2,3,3,4,4,5,5,6,6],"right_children":[2,4,6,8,10,12,14,-1,-1,-1,-1,-1,-1,-1,-1],"split_conditions":[1.1955135E1,1.6666667E-1,1.7466995E1,1.4936006E-1,5.984456E-1,9.3333334E-1,1.956849E-2,-1.6701635E-3,1.4872436E-1,3.962612E-2,-3.0633325E-2,1.1132754E-2,-7.858516E-2,-2.414566E-2,-1.6043863E-1],"split_indices":[0,4,0,1,6,4,5,0,0,0,0,0,0,0,0],"split_type":[0,0,0,0,0,0,0,0,0,0,0,0,0,0,0],"sum_hessian":[1.4322723E2,3.976974E1,1.034575E2,3.1810375E1,7.9593663E0,6.4881935E1,3.8575558E1,3.7753692E0,2.8035006E1,4.8445044E0,3.114862E0,5.42759E1,1.0606032E1,1.9231655E1,1.9343904E1],"tree_param":{"num_deleted":"0","num_feature":"9","num_nodes":"15","size_leaf_vector":"1"}},{"base_weights":[-1.9539362E-2,5.203158E-1,-2.493521E-1,-2.2050876E-2,5.9225535E-1,-5.7455003E-2,-5.007036E-1,3.8576838E-2,-4.7164317E-2,1.3035749E-1,-1.3429815E-2,-3.2567404E-2,5.2087236E-2,-1.198952E-1,2.7052809E-2],"categories":[],"categories_nodes":[],"categories_segments":[],"categories_sizes":[],"default_left":[0,0,0,0,0,0,0,0,0,0,0,0,0,0,0],"id":6,"left_children":[1,3,5,7,9,11,13,-1,-1,-1,-1,-1,-1,-1,-1],"loss_changes":[1.989162E1,2.0030584E0,5.108883E0,1.1560581E0,2.1150312E0,2.927938E0,3.77215E0,0E0,0E0,0E0,0E0,0E0,0E0,0E0,0E0],"parents":[2147483647,0,0,1,1,2,2,3,3,4,4,5,5,6,6],"right_children":[2,4,6,8,10,12,14,-1,-1,-1,-1,-1,-1,-1,-1],"split_conditions":[1.1955135E1,1.341853E-1,1.7466995E1,1.1155379E-1,3.9571628E-1,5.2810335E-1,5.722111E-1,3.8576838E-2,-4.7164317E-2,1.3035749E-1,-1.3429815E-2,-3.2567404E-2,5.2087236E-2,-1.198952E-1,2.7052809E-2],"split_indices":[0,5,0,5,1,1,1,0,0,0,0,0,0,0,0],"split_type":[0,0,0,0,0,0,0,0,0,0,0,0,0,0,0],"sum_hessian":[1.3987395E2,3.799013E1,1.0188382E2,5.261024E0,3.2729107E1,6.4741806E1,3.7142014E1,3.110567E0,2.1504567E0,3.0124897E1,2.6042097E0,5.2286304E1,1.2455503E1,3.2645607E1,4.4964056E0],"tree_param":{"num_deleted":"0","num_feature":"9","num_nodes":"15","size_leaf_vector":"1"}},{"base_weights":[-1.3467638E-2,3.5322934E-1,-2.7858943E-1,5.402501E-1,5.642817E-2,-4.868452E-1,-9.3720555E-2,-1.6015878E-2,1.211004E-1,-2.2986185E-2,6.997743E-2,-1.3405482E-1,1.7893422E-2,4.432869E-2,-5.379733E-2],"categories":[],"categories_nodes":[],"categories_segments":[],"categories_sizes":[],"default_left":[0,0,0,0,0,0,0,0,0,0,0,0,0,0,0],"id":7,"left_children":[1,3,5,7,9,11,13,-1,-1,-1,-1,-1,-1,-1,-1],"loss_changes":[1.5222717E1,3.3512363E0,3.03156E0,2.0731983E0,2.243972E0,4.8512E0,3.9332867E0,0E0,0E0,0E0,0E0,0E0,0E0,0E0,0E0],"parents":[2147483647,0,0,1,1,2,2,3,3,4,4,5,5,6,6],"right_children":[2,4,6,8,10,12,14,-1,-1,-1,-1,-1,-1,-1,-1],"split_conditions":[1.4032944E1,8.959984E-2,7.777778E-1,2.5233644E-1,1.2496424E1,3.2414764E1,8.666667E-1,-1.6015878E-2,1.211004E-1,-2.2986185E-2,6.997743E-2,-1.3405482E-1,1.7893422E-2,4.432869E-2,-5.379733E-2],"split_indices":[0,2,4,6,0,0,4,0,0,0,0,0,0,0,0],"split_type":[0,0,0,0,0,0,0,0,0,0,0,0,0,0,0],"sum_hessian":[1.3645909E2,5.5866024E1,8.059307E1,2.9239294E1,2.662673E1,3.0217861E1,5.0375206E1,2.5666456E0,2.667265E1,2.0651379E1,5.975352E0,2.1685417E1,8.532443E0,1.7050098E1,3.3325108E1],"tree_param":{"num_deleted":"0","num_feature":"9","num_nodes":"15","size_leaf_vector":"1"}},{"base_weights":[-9.227732E-3,4.7988477E-1,-1.7115013E-1,5.886855E-1,-6.424382E-2,-4.5688685E-2,-4.413922E-1,-1.5345411E-2,1.340819E-1,-5.009976E-2,3.1948082E-2,4.6949764E-3,-7.498252E-2,2.4095546E-2,-1.20001785E-1],"categories":[],"categories_nodes":[],"categories_segments":[],"categories_sizes":[],"default_left":[0,0,0,0,0,0,0,0,0,0,0,0,0,0,0],"id":8,"left_children":[1,3,5,7,9,11,13,-1,-1,-1,-1,-1,-1,-1,-1],"loss_changes":[1.2203576E1,2.6499891E0,3.7090867E0,2.30694E0,1.0430453E0,2.1357007E0,3.8792586E0,0E0,0E0,0E0,0E0,0E0,0E0,0E0,0E0],"parents":[2147483647,0,0,1,1,2,2,3,3,4,4,5,5,6,6],"right_children":[2,4,6,8,10,12,14,-1,-1,-1,-1,-1,-1,-1,-1],"split_conditions":[3.8755345E-1,1.053045E-1,1.7721573E-1,2.5233644E-1,1.6666667E-1,9.444444E-1,1.6645327E-2,-1.5345411E-2,1.340819E-1,-5.009976E-2,3.1948082E-2,4.6949764E-3,-7.498252E-2,2.4095546E-2,-1.20001785E-1],"split_indices":[1,2,2,6,5,4,5,0,0,0,0,0,0,0,0],"split_type":[0,0,0,0,0,0,0,0,0,0,0,0,0,0,0],"sum_hessian":[1.3371844E2,2.8373882E1,1.0534457E2,2.2963392E1,5.4104905E0,7.992812E1,2.5416437E1,2.5786846E0,2.0384706E1,2.307724E0,3.1027663E0,7.372656E1,6.201561E0,6.1248345E0,1.9291603E1],"tree_param":{"num_deleted":"0","num_feature":"9","num_nodes":"15","size_leaf_vector":"1"}},{"base_weights":[-1.1959199E-2,4.2966405E-1,-1.5351517E-1,5.341967E-1,-6.312507E-2,-4.307172E-2,-4.0538514E-1,-1.4701627E-2,1.2282878E-1,-4.8065633E-2,3.0567676E-2,-2.317447E-2,9.315762E-2,-1.23334944E-1,2.0542495E-2],"categories":[],"categories_nodes":[],"categories_segments":[],"categories_sizes":[],"default_left":[0,0,0,0,0,0,0,0,0,0,0,0,0,0,0],"id":9,"left_children":[1,3,5,7,9,11,13,-1,-1,-1,-1,-1,-1,-1,-1],"loss_changes":[9.476567E0,2.2363243E0,3.0013607E0,1.9804916E0,9.564711E-1,3.894466E0,4.242066E0,0E0,0E0,0E0,0E0,0E0,0E0,0E0,0E0],"parents":[2147483647,0,0,1,1,2,2,3,3,4,4,5,5,6,6],"right_children":[2,4,6,8,10,12,14,-1,-1,-1,-1,-1,-1,-1,-1],"split_conditions":[3.8755345E-1,1.053045E-1,2.3079218E1,2.5233644E-1,1.6666667E-1,5.690142E-1,3.2414764E1,-1.4701627E-2,1.2282878E-1,-4.8065633E-2,3.0567676E-2,-2.317447E-2,9.315762E-2,-1.23334944E-1,2.0542495E-2],"split_indices":[1,2,0,6,5,1,0,0,0,0,0,0,0,0,0],"split_type":[0,0,0,0,0,0,0,0,0,0,0,0,0,0,0],"sum_hessian":[1.3103899E2,2.6866991E1,1.0417199E2,2.1471987E1,5.395003E0,8.0557915E1,2.3614079E1,2.5899992E0,1.8881989E1,2.34373E0,3.051273E0,7.723159E1,3.3263266E0,1.5169142E1,8.444937E0],"tree_param":{"num_deleted":"0","num_feature":"9","num_nodes":"15","size_leaf_vector":"1"}},{"base_weights":[-5.4409546E-3,3.747236E-1,-1.4335205E-1,4.5912707E-1,-1.8808334E-1,-2.116928E-1,2.0172359E-1,-6.975073E-3,1.07561074E-1,1.6458828E-3,-4.2668886E-2,-4.9812492E-2,3.5528984E-2,-4.1345384E-2,8.480243E-2],"categories":[],"categories_nodes":[],"categories_segments":[],"categories_sizes":[],"default_left":[0,0,0,0,0,0,0,0,0,0,0,0,0,0,0],"id":10,"left_children":[1,3,5,7,9,11,13,-1,-1,-1,-1,-1,-1,-1,-1],"loss_changes":[7.813559E0,2.7499552E0,2.9993005E0,1.6427078E0,7.841861E-2,1.838068E0,2.9785454E0,0E0,0E0,0E0,0E0,0E0,0E0,0E0,0E0],"parents":[2147483647,0,0,1,1,2,2,3,3,4,4,5,5,6,6],"right_children":[2,4,6,8,10,12,14,-1,-1,-1,-1,-1,-1,-1,-1],"split_conditions":[8.840766E-2,5.249794E-1,3E0,1.7156681E-1,8.876081E-2,5.722111E-1,1.4436619E-1,-6.975073E-3,1.07561074E-1,1.6458828E-3,-4.2668886E-2,-4.9812492E-2,3.5528984E-2,-4.1345384E-2,8.480243E-2],"split_indices":[2,1,7,1,5,1,5,0,0,0,0,0,0,0,0],"split_type":[0,0,0,0,0,0,0,0,0,0,0,0,0,0,0],"sum_hessian":[1.2878575E2,2.97116E1,9.907414E1,2.7438828E1,2.2727733E0,8.592282E1,1.3151326E1,4.534587E0,2.290424E1,1.0277821E0,1.2449913E0,8.168536E1,4.2374587E0,4.8815837E0,8.269743E0],"tree_param":{"num_deleted":"0","num_feature":"9","num_nodes":"15","size_leaf_vector":"1"}},{"base_weights":[2.4020714E-3,1.4729178E-1,-2.700996E-1,3.681703E-1,-2.5451066E-2,6.6630326E-2,-4.569608E-1,-1.1344999E-2,8.8001326E-2,-3.9223902E-2,4.6087246E-2,-3.1449165E-2,7.194897E-2,2.9983891E-2,-1.1328173E-1],"categories":[],"categories_nodes":[],"categories_segments":[],"categories_sizes":[],"default_left":[0,0,0,0,0,0,0,0,0,0,0,0,0,0,0],"id":11,"left_children":[1,3,5,7,9,11,13,-1,-1,-1,-1,-1,-1,-1,-1],"loss_changes":[5.803002E0,3.7508242E0,3.5166962E0,1.553235E0,3.2093008E0,2.3339643E0,3.1144247E0,0E0,0E0,0E0,0E0,0E0,0E0,0E0,0E0],"parents":[2147483647,0,0,1,1,2,2,3,3,4,4,5,5,6,6],"right_children":[2,4,6,8,10,12,14,-1,-1,-1,-1,-1,-1,-1,-1],"split_conditions":[1.716647E1,6.012146E-1,1.956849E-2,1.7156681E-1,5.2341974E-1,3.238143E1,9.8921984E-2,-1.1344999E-2,8.8001326E-2,-3.9223902E-2,4.6087246E-2,-3.1449165E-2,7.194897E-2,2.9983891E-2,-1.1328173E-1],"split_indices":[0,6,5,1,1,0,2,0,0,0,0,0,0,0,0],"split_type":[0,0,0,0,0,0,0,0,0,0,0,0,0,0,0],"sum_hessian":[1.26899666E2,8.584861E1,4.1051052E1,3.2710266E1,5.3138344E1,1.6946728E1,2.4104324E1,5.034708E0,2.767556E1,3.327843E1,1.9859915E1,1.2236235E1,4.710494E0,3.117915E0,2.098641E1],"tree_param":{"num_deleted":"0","num_feature":"9","num_nodes":"15","size_leaf_vector":"1"}},{"base_weights":[4.87209E-3,3.3176103E-1,-9.544584E-2,4.3740785E-1,-8.7393954E-2,-2.7696725E-3,-3.1867692E-1,-1.3959773E-2,1.02908246E-1,-4.69053E-2,2.4511972E-2,-3.5211876E-2,2.9394044E-2,-9.162683E-2,3.657419E-2],"categories":[],"categories_nodes":[],"categories_segments":[],"categories_sizes":[],"default_left":[0,0,0,0,0,0,0,0,0,0,0,0,0,0,0],"id":12,"left_children":[1,3,5,7,9,11,13,-1,-1,-1,-1,-1,-1,-1,-1],"loss_changes":[4.730952E0,1.8809655E0,2.282757E0,1.4818163E0,7.5536704E-1,2.5515528E0,3.1045337E0,0E0,0E0,0E0,0E0,0E0,0E0,0E0,0E0],"parents":[2147483647,0,0,1,1,2,2,3,3,4,4,5,5,6,6],"right_children":[2,4,6,8,10,12,14,-1,-1,-1,-1,-1,-1,-1,-1],"split_conditions":[3.8755345E-1,1.053045E-1,1.7721573E-1,2.5233644E-1,1.6666667E-1,9.748987E-2,5.722111E-1,-1.3959773E-2,1.02908246E-1,-4.69053E-2,2.4511972E-2,-3.5211876E-2,2.9394044E-2,-9.162683E-2,3.657419E-2],"split_indices":[1,2,2,6,5,2,1,0,0,0,0,0,0,0,0],"split_type":[0,0,0,0,0,0,0,0,0,0,0,0,0,0,0],"sum_hessian":[1.24611755E2,2.3844097E1,1.00767654E2,1.8696283E1,5.147813E0,7.835996E1,2.2407694E1,2.593443E0,1.610284E1,2.338583E0,2.8092299E0,3.5508873E1,4.285109E1,1.8209946E1,4.197748E0],"tree_param":{"num_deleted":"0","num_feature":"9","num_nodes":"15","size_leaf_vector":"1"}},{"base_weights":[4.4698124E-3,2.9407847E-1,-9.860465E-2,3.7808445E-1,-1.8593732E-1,-3.48892E-2,-4.0464348E-1,-8.364465E-3,9.0517305E-2,1.4124814E-3,-4.1972466E-2,-1.8960545E-2,8.018031E-2,-9.084229E-2,3.5413734E-3],"categories":[],"categories_nodes":[],"categories_segments":[],"categories_sizes":[],"default_left":[0,0,0,0,0,0,0,0,0,0,0,0,0,0,0],"id":13,"left_children":[1,3,5,7,9,11,13,-1,-1,-1,-1,-1,-1,-1,-1],"loss_changes":[4.255521E0,2.210352E0,1.9152825E0,1.2876577E0,7.148248E-2,2.9449084E0,4.411285E-1,0E0,0E0,0E0,0E0,0E0,0E0,0E0,0E0],"parents":[2147483647,0,0,1,1,2,2,3,3,4,4,5,5,6,6],"right_children":[2,4,6,8,10,12,14,-1,-1,-1,-1,-1,-1,-1,-1],"split_conditions":[8.840766E-2,5.249794E-1,3.0430576E-1,1.7156681E-1,8.876081E-2,5.690142E-1,2.353456E1,-8.364465E-3,9.0517305E-2,1.4124814E-3,-4.1972466E-2,-1.8960545E-2,8.018031E-2,-9.084229E-2,3.5413734E-3],"split_indices":[2,1,2,1,5,1,0,0,0,0,0,0,0,0,0],"split_type":[0,0,0,0,0,0,0,0,0,0,0,0,0,0,0],"sum_hessian":[1.22843506E2,2.7380825E1,9.5462685E1,2.510992E1,2.2709048E0,8.823311E1,7.2295785E0,4.4447775E0,2.0665144E1,1.02781E0,1.2430948E0,8.444763E1,3.7854757E0,5.795079E0,1.4344994E0],"tree_param":{"num_deleted":"0","num_feature":"9","num_nodes":"15","size_leaf_vector":"1"}},{"base_weights":[4.8968894E-3,1.7730032E-1,-1.3807581E-1,2.3774037E-1,-1.7581566E-1,-4.037764E-1,1.7157875E-2,7.101917E-2,-8.697467E-3,2.6651233E-2,-6.397247E-2,1.9007942E-2,-1.08834505E-1,-5.3371042E-2,3.6214054E-2],"categories":[],"categories_nodes":[],"categories_segments":[],"categories_sizes":[],"default_left":[0,0,0,0,0,0,0,0,0,0,0,0,0,0,0],"id":14,"left_children":[1,3,5,7,9,11,13,-1,-1,-1,-1,-1,-1,-1,-1],"loss_changes":[3.4917333E0,1.7859242E0,3.2712417E0,2.100944E0,1.0992124E0,2.5506825E0,3.2109666E0,0E0,0E0,0E0,0E0,0E0,0E0,0E0,0E0],"parents":[2147483647,0,0,1,1,2,2,3,3,4,4,5,5,6,6],"right_children":[2,4,6,8,10,12,14,-1,-1,-1,-1,-1,-1,-1,-1],"split_conditions":[2.5E-1,1.7721573E-1,7.777778E-1,6.012146E-1,1.7454956E-2,1.6645327E-2,5.2341974E-1,7.101917E-2,-8.697467E-3,2.6651233E-2,-6.397247E-2,1.9007942E-2,-1.08834505E-1,-5.3371042E-2,3.6214054E-2],"split_indices":[4,2,4,6,5,5,1,0,0,0,0,0,0,0,0],"split_type":[0,0,0,0,0,0,0,0,0,0,0,0,0,0,0],"sum_hessian":[1.2172652E2,5.409507E1,6.763145E1,4.897907E1,5.1160007E0,1.9036825E1,4.8594624E1,3.2704815E1,1.6274254E1,1.8645197E0,3.251481E0,4.8908005E0,1.4146024E1,1.54843445E1,3.311028E1],"tree_param":{"num_deleted":"0","num_feature":"9","num_nodes":"15","size_leaf_vector":"1"}},{"base_weights":[-2.4469402E-3,7.461079E-2,-2.775414E-1,1.2678792E-1,-3.131686E-1,-4.9682924E-1,1.498657E-1,1.4335523E-2,8.920718E-2,-7.999914E-2,5.879872E-3,-3.4276877E-6,-1.07633255E-1,6.831842E-2,-3.507824E-2],"categories":[],"categories_nodes":[],"categories_segments":[],"categories_sizes":[],"default_left":[0,0,0,0,0,0,0,0,0,0,0,0,0,0,0],"id":15,"left_children":[1,3,5,7,9,11,13,-1,-1,-1,-1,-1,-1,-1,-1],"loss_changes":[2.9641962E0,2.6122916E0,3.6106246E0,1.503342E0,5.895269E-1,4.625497E-1,1.7248333E0,0E0,0E0,0E0,0E0,0E0,0E0,0E0,0E0],"parents":[2147483647,0,0,1,1,2,2,3,3,4,4,5,5,6,6],"right_children":[2,4,6,8,10,12,14,-1,-1,-1,-1,-1,-1,-1,-1],"split_conditions":[2.3079218E1,9.444444E-1,3.2414764E1,5.690142E-1,1.0236221E-1,1.6497573E-1,1.956849E-2,1.4335523E-2,8.920718E-2,-7.999914E-2,5.879872E-3,-3.4276877E-6,-1.07633255E-1,6.831842E-2,-3.507824E-2],"split_indices":[0,4,0,1,5,2,5,0,0,0,0,0,0,0,0],"split_type":[0,0,0,0,0,0,0,0,0,0,0,0,0,0,0],"sum_hessian":[1.2006417E2,9.94849E1,2.0579271E1,9.361858E1,5.8663116E0,1.2527554E1,8.051719E0,9.027929E1,3.3392944E0,3.3426862E0,2.5236256E0,1.7307346E0,1.0796819E1,4.7497187E0,3.3019998E0],"tree_param":{"num_deleted":"0","num_feature":"9","num_nodes":"15","size_leaf_vector":"1"}},{"base_weights":[-5.8315783E-3,2.444973E-1,-7.805051E-2,3.468225E-1,-9.816523E-2,-3.5795003E-1,-2.1727135E-2,-1.686435E-2,8.563575E-2,-4.3728918E-2,2.7960671E-2,-8.5680835E-2,2.9045355E-3,-2.3806771E-2,3.801853E-2],"categories":[],"categories_nodes":[],"categories_segments":[],"categories_sizes":[],"default_left":[0,0,0,0,0,0,0,0,0,0,0,0,0,0,0],"id":16,"left_children":[1,3,5,7,9,11,13,-1,-1,-1,-1,-1,-1,-1,-1],"loss_changes":[2.52718E0,1.4398743E0,1.6229155E0,1.285351E0,7.3584664E-1,5.194955E-1,2.2967582E0,0E0,0E0,0E0,0E0,0E0,0E0,0E0,0E0],"parents":[2147483647,0,0,1,1,2,2,3,3,4,4,5,5,6,6],"right_children":[2,4,6,8,10,12,14,-1,-1,-1,-1,-1,-1,-1,-1],"split_conditions":[3.8755345E-1,1.053045E-1,3.9885837E-1,2.5233644E-1,3.82834E-1,6.131387E-1,1.0526316E-1,-1.686435E-2,8.563575E-2,-4.3728918E-2,2.7960671E-2,-8.5680835E-2,2.9045355E-3,-2.3806771E-2,3.801853E-2],"split_indices":[1,2,1,6,1,6,5,0,0,0,0,0,0,0,0],"split_type":[0,0,0,0,0,0,0,0,0,0,0,0,0,0,0],"sum_hessian":[1.1923364E2,2.1355415E1,9.787823E1,1.635124E1,5.0041766E0,7.4253287E0,9.0452896E1,2.5377934E0,1.3813446E1,3.861305E0,1.1428716E0,4.9814506E0,2.443878E0,6.498172E1,2.5471178E1],"tree_param":{"num_deleted":"0","num_feature":"9","num_nodes":"15","size_leaf_vector":"1"}},{"base_weights":[-5.6490996E-3,3.9430413E-2,-3.3895412E-1,8.1882E-2,-2.9729223E-1,-7.9344496E-2,7.388619E-3,3.1112188E-3,5.4149598E-2,-7.54454E-2,4.8127305E-3],"categories":[],"categories_nodes":[],"categories_segments":[],"categories_sizes":[],"default_left":[0,0,0,0,0,0,0,0,0,0,0],"id":17,"left_children":[1,3,5,7,9,-1,-1,-1,-1,-1,-1],"loss_changes":[2.057041E0,1.9833137E0,5.0036E-1,1.4101169E0,4.9629712E-1,0E0,0E0,0E0,0E0,0E0,0E0],"parents":[2147483647,0,0,1,1,2,2,3,3,4,4],"right_children":[2,4,6,8,10,-1,-1,-1,-1,-1,-1],"split_conditions":[3.0430576E-1,9.444444E-1,2.353456E1,5.2810335E-1,1.0236221E-1,-7.9344496E-2,7.388619E-3,3.1112188E-3,5.4149598E-2,-7.54454E-2,4.8127305E-3],"split_indices":[2,4,0,1,5,0,0,0,0,0,0],"split_type":[0,0,0,0,0,0,0,0,0,0,0],"sum_hessian":[1.180107E2,1.1171784E2,6.292854E0,1.05931076E2,5.786768E0,4.9743724E0,1.3184816E0,8.640948E1,1.9521599E1,3.2417927E0,2.5449753E0],"tree_param":{"num_deleted":"0","num_feature":"9","num_nodes":"11","size_leaf_vector":"1"}},{"base_weights":[-1.1347292E-2,1.2656583E-1,-1.2186425E-1,1.7704946E-1,-1.5240778E-1,-3.5585257E-1,1.1664149E-2,5.7012644E-2,-1.1895909E-2,2.618279E-2,-5.8699347E-2,1.8497886E-2,-9.778865E-2,-3.4092505E-2,4.7491025E-2],"categories":[],"categories_nodes":[],"categories_segments":[],"categories_sizes":[],"default_left":[0,0,0,0,0,0,0,0,0,0,0,0,0,0,0],"id":18,"left_children":[1,3,5,7,9,11,13,-1,-1,-1,-1,-1,-1,-1,-1],"loss_changes":[2.1028223E0,1.1399047E0,2.4181337E0,1.6242355E0,9.7745603E-1,2.1202576E0,2.794492E0,0E0,0E0,0E0,0E0,0E0,0E0,0E0,0E0],"parents":[2147483647,0,0,1,1,2,2,3,3,4,4,5,5,6,6],"right_children":[2,4,6,8,10,12,14,-1,-1,-1,-1,-1,-1,-1,-1],"split_conditions":[2.5E-1,1.7721573E-1,7.777778E-1,6.012146E-1,1.7454956E-2,1.6645327E-2,8.5226816E-1,5.7012644E-2,-1.1895909E-2,2.618279E-2,-5.8699347E-2,1.8497886E-2,-9.778865E-2,-3.4092505E-2,4.7491025E-2],"split_indices":[4,2,4,6,5,5,6,0,0,0,0,0,0,0,0],"split_type":[0,0,0,0,0,0,0,0,0,0,0,0,0,0,0],"sum_hessian":[1.1784523E2,5.1778786E1,6.6066444E1,4.6938282E1,4.8405046E0,1.79543E1,4.811215E1,3.0814528E1,1.6123753E1,1.8488977E0,2.9916067E0,4.808058E0,1.3146242E1,2.7987446E1,2.01247E1],"tree_param":{"num_deleted":"0","num_feature":"9","num_nodes":"15","size_leaf_vector":"1"}},{"base_weights":[-1.3499772E-2,1.833305E-1,-7.908376E-2,2.6525787E-1,-1.8277246E-1,-2.4372596E-1,2.5040002E-3,-1.8589674E-2,6.996303E-2,1.7230401E-3,-4.1548792E-2,-8.2133524E-2,5.2544605E-2,4.458769E-2,-3.90257E-2],"categories":[],"categories_nodes":[],"categories_segments":[],"categories_sizes":[],"default_left":[0,0,0,0,0,0,0,0,0,0,0,0,0,0,0],"id":19,"left_children":[1,3,5,7,9,11,13,-1,-1,-1,-1,-1,-1,-1,-1],"loss_changes":[1.7792228E0,1.524215E0,1.3754947E0,1.3063977E0,7.647836E-2,3.9434366E0,3.8358476E0,0E0,0E0,0E0,0E0,0E0,0E0,0E0,0E0],"parents":[2147483647,0,0,1,1,2,2,3,3,4,4,5,5,6,6],"right_children":[2,4,6,8,10,12,14,-1,-1,-1,-1,-1,-1,-1,-1],"split_conditions":[8.840766E-2,5.249794E-1,9.748987E-2,1.7156681E-1,8.876081E-2,8.5487527E-1,1.712711E1,-1.8589674E-2,6.996303E-2,1.7230401E-3,-4.1548792E-2,-8.2133524E-2,5.2544605E-2,4.458769E-2,-3.90257E-2],"split_indices":[2,1,2,1,5,6,0,0,0,0,0,0,0,0,0],"split_type":[0,0,0,0,0,0,0,0,0,0,0,0,0,0,0],"sum_hessian":[1.1659764E2,2.4653664E1,9.194397E1,2.239632E1,2.257344E0,2.388061E1,6.806336E1,4.087646E0,1.8308674E1,1.0165153E0,1.2408288E0,1.9382692E1,4.4979157E0,3.157024E1,3.6493126E1],"tree_param":{"num_deleted":"0","num_feature":"9","num_nodes":"15","size_leaf_vector":"1"}},{"base_weights":[-1.1810463E-2,2.7922126E-2,-3.0512604E-1,-1.5664015E-2,3.718071E-1,-7.298883E-2,8.471091E-3,7.7843256E-3,-6.0697258E-2,-1.9381446E-3,8.5482106E-2],"categories":[],"categories_nodes":[],"categories_segments":[],"categories_sizes":[],"default_left":[0,0,0,0,0,0,0,0,0,0,0],"id":20,"left_children":[1,3,5,7,9,-1,-1,-1,-1,-1,-1],"loss_changes":[1.5454532E0,1.8495638E0,4.8270702E-1,1.9353181E0,3.3517194E-1,0E0,0E0,0E0,0E0,0E0,0E0],"parents":[2147483647,0,0,1,1,2,2,3,3,4,4],"right_children":[2,4,6,8,10,-1,-1,-1,-1,-1,-1],"split_conditions":[3.0430576E-1,5.690142E-1,2.353456E1,1.7721573E-1,2.988686E-1,-7.298883E-2,8.471091E-3,7.7843256E-3,-6.0697258E-2,-1.9381446E-3,8.5482106E-2],"split_indices":[2,1,0,2,2,0,0,0,0,0,0],"split_type":[0,0,0,0,0,0,0,0,0,0,0],"sum_hessian":[1.15298775E2,1.09512276E2,5.7865024E0,1.0566422E2,3.8480487E0,4.5079255E0,1.2785769E0,9.608868E1,9.575548E0,1.5398984E0,2.3081503E0],"tree_param":{"num_deleted":"0","num_feature":"9","num_nodes":"11","size_leaf_vector":"1"}},{"base_weights":[-1.23792775E-2,1.2381084E-1,-8.711918E-2,2.2826175E-1,-2.2789226E-1,-4.1119877E-1,6.6636917E-3,6.9747544E-3,7.3189996E-2,-7.3186465E-2,2.7301857E-2,-1.0515721E-1,2.5528604E-2,6.263905E-2,-2.3009397E-2],"categories":[],"categories_nodes":[],"categories_segments":[],"categories_sizes":[],"default_left":[0,0,0,0,0,0,0,0,0,0,0,0,0,0,0],"id":21,"left_children":[1,3,5,7,9,11,13,-1,-1,-1,-1,-1,-1,-1,-1],"loss_changes":[1.3776857E0,2.295774E0,2.6538908E0,9.977095E-1,1.3079679E0,1.878511E0,3.2279303E0,0E0,0E0,0E0,0E0,0E0,0E0,0E0,0E0],"parents":[2147483647,0,0,1,1,2,2,3,3,4,4,5,5,6,6],"right_children":[2,4,6,8,10,12,14,-1,-1,-1,-1,-1,-1,-1,-1],"split_conditions":[9.429703E-2,9.166667E-1,9.748987E-2,6.1559886E-1,1.05017506E-1,1.4814815E-1,1.0334E-1,6.9747544E-3,7.3189996E-2,-7.3186465E-2,2.7301857E-2,-1.0515721E-1,2.5528604E-2,6.263905E-2,-2.3009397E-2],"split_indices":[2,4,2,6,5,5,2,0,0,0,0,0,0,0,0],"split_type":[0,0,0,0,0,0,0,0,0,0,0,0,0,0,0],"sum_hessian":[1.1475127E2,3.8333984E1,7.641728E1,3.226234E1,6.071647E0,9.554514E0,6.686276E1,1.862944E1,1.3632899E1,4.373065E0,1.698582E0,8.078809E0,1.4757051E0,1.4531652E1,5.2331112E1],"tree_param":{"num_deleted":"0","num_feature":"9","num_nodes":"15","size_leaf_vector":"1"}},{"base_weights":[-1.0474324E-2,1.7632666E-1,-6.225032E-2,-1.2098642E-1,2.7852014E-1,-3.0831665E-1,6.028077E-3,1.7574502E-2,-4.2204432E-2,7.7522196E-2,-1.2492163E-2,-9.478713E-2,5.0487757E-2,4.825666E-2,-1.7355625E-2],"categories":[],"categories_nodes":[],"categories_segments":[],"categories_sizes":[],"default_left":[0,0,0,0,0,0,0,0,0,0,0,0,0,0,0],"id":22,"left_children":[1,3,5,7,9,11,13,-1,-1,-1,-1,-1,-1,-1,-1],"loss_changes":[1.3097382E0,1.2343397E0,1.7748718E0,4.5859933E-1,1.1723568E0,3.3229346E0,2.2101038E0,0E0,0E0,0E0,0E0,0E0,0E0,0E0,0E0],"parents":[2147483647,0,0,1,1,2,2,3,3,4,4,5,5,6,6],"right_children":[2,4,6,8,10,12,14,-1,-1,-1,-1,-1,-1,-1,-1],"split_conditions":[3.8755345E-1,1.7156681E-1,8.3333336E-2,3.4908347E0,1.053045E-1,4.3014947E-1,2.5E-1,1.7574502E-2,-4.2204432E-2,7.7522196E-2,-1.2492163E-2,-9.478713E-2,5.0487757E-2,4.825666E-2,-1.7355625E-2],"split_indices":[1,1,4,0,2,1,4,0,0,0,0,0,0,0,0],"split_type":[0,0,0,0,0,0,0,0,0,0,0,0,0,0,0],"sum_hessian":[1.1406928E2,1.9534761E1,9.453452E1,4.526574E0,1.5008186E1,1.2897571E1,8.1636955E1,1.4359102E0,3.0906641E0,1.0334365E1,4.673822E0,1.1152073E1,1.7454975E0,1.8568607E1,6.3068344E1],"tree_param":{"num_deleted":"0","num_feature":"9","num_nodes":"15","size_leaf_vector":"1"}},{"base_weights":[-6.0159937E-3,3.0045543E-2,-2.7810857E-1,-1.3716294E-2,3.6844954E-1,9.718609E-3,-6.823211E-2,7.5435652E-3,-5.380694E-2,-8.202836E-4,8.349063E-2],"categories":[],"categories_nodes":[],"categories_segments":[],"categories_sizes":[],"default_left":[0,0,0,0,0,0,0,0,0,0,0],"id":23,"left_children":[1,3,5,7,9,-1,-1,-1,-1,-1,-1],"loss_changes":[1.2938931E0,1.7971516E0,4.8321652E-1,1.599541E0,2.7023435E-1,0E0,0E0,0E0,0E0,0E0,0E0],"parents":[2147483647,0,0,1,1,2,2,3,3,4,4],"right_children":[2,4,6,8,10,-1,-1,-1,-1,-1,-1],"split_conditions":[3.0430576E-1,5.690142E-1,1.5988372E-2,8.5642433E-1,2.988686E-1,9.718609E-3,-6.823211E-2,7.5435652E-3,-5.380694E-2,-8.202836E-4,8.349063E-2],"split_indices":[2,1,5,6,2,0,0,0,0,0,0],"split_type":[0,0,0,0,0,0,0,0,0,0,0],"sum_hessian":[1.1335144E2,1.0794131E2,5.4101396E0,1.0407693E2,3.8643768E0,1.2461966E0,4.163943E0,9.371972E1,1.0357208E1,1.5143721E0,2.3500047E0],"tree_param":{"num_deleted":"0","num_feature":"9","num_nodes":"11","size_leaf_vector":"1"}},{"base_weights":[-6.731062E-3,2.7954658E-2,-2.629247E-1,1.2603779E-1,-8.6292975E-2,-6.888081E-2,3.34037E-2,4.3568658E-4,8.278283E-2,3.4969624E-2,-4.2278867E-2,-3.6512353E-2,4.5342855E-2],"categories":[],"categories_nodes":[],"categories_segments":[],"categories_sizes":[],"default_left":[0,0,0,0,0,0,0,0,0,0,0,0,0],"id":24,"left_children":[1,3,5,7,9,-1,11,-1,-1,-1,-1,-1,-1],"loss_changes":[1.1669806E0,1.4245267E0,4.9253094E-1,2.3886054E0,2.3355062E0,0E0,9.3523204E-1,0E0,0E0,0E0,0E0,0E0,0E0],"parents":[2147483647,0,0,1,1,2,2,3,3,4,4,6,6],"right_children":[2,4,6,8,10,-1,12,-1,-1,-1,-1,-1,-1],"split_conditions":[9.444444E-1,1.0334E-1,1.0236221E-1,8.524673E-1,1.956849E-2,-6.888081E-2,5.2388793E-1,4.3568658E-4,8.278283E-2,3.4969624E-2,-4.2278867E-2,-3.6512353E-2,4.5342855E-2],"split_indices":[4,2,5,6,5,0,1,0,0,0,0,0,0],"split_type":[0,0,0,0,0,0,0,0,0,0,0,0,0],"sum_hessian":[1.1305297E2,1.07418564E2,5.634411E0,5.7242836E1,5.0175728E1,3.1467848E0,2.487626E0,4.7067585E1,1.0175249E1,1.4963619E1,3.521211E1,1.4375936E0,1.0500324E0],"tree_param":{"num_deleted":"0","num_feature":"9","num_nodes":"13","size_leaf_vector":"1"}},{"base_weights":[-4.1818116E-3,2.9957414E-2,-2.656471E-1,-1.196073E-2,3.511338E-1,-6.5373845E-2,9.337796E-3,7.5017237E-3,-5.2076418E-2,-9.109156E-4,7.960611E-2],"categories":[],"categories_nodes":[],"categories_segments":[],"categories_sizes":[],"default_left":[0,0,0,0,0,0,0,0,0,0,0],"id":25,"left_children":[1,3,5,7,9,-1,-1,-1,-1,-1,-1],"loss_changes":[1.176809E0,1.626772E0,4.434483E-1,1.4960994E0,2.5030494E-1,0E0,0E0,0E0,0E0,0E0,0E0],"parents":[2147483647,0,0,1,1,2,2,3,3,4,4],"right_children":[2,4,6,8,10,-1,-1,-1,-1,-1,-1],"split_conditions":[3.0430576E-1,5.690142E-1,2.353456E1,8.5642433E-1,2.988686E-1,-6.5373845E-2,9.337796E-3,7.5017237E-3,-5.2076418E-2,-9.109156E-4,7.960611E-2],"split_indices":[2,1,0,6,2,0,0,0,0,0,0],"split_type":[0,0,0,0,0,0,0,0,0,0,0],"sum_hessian":[1.1292185E2,1.0771224E2,5.2096148E0,1.0379331E2,3.9189265E0,3.9667697E0,1.242845E0,9.363704E1,1.0156276E1,1.5082691E0,2.4106574E0],"tree_param":{"num_deleted":"0","num_feature":"9","num_nodes":"11","size_leaf_vector":"1"}},{"base_weights":[-5.2378057E-3,2.7859585E-2,-2.5147045E-1,7.92337E-2,-1.6570567E-1,-6.6026226E-2,3.2283895E-2,5.8585417E-2,-1.9173053E-3,-7.773759E-2,3.6383227E-2,-3.5838533E-2,4.430123E-2],"categories":[],"categories_nodes":[],"categories_segments":[],"categories_sizes":[],"default_left":[0,0,0,0,0,0,0,0,0,0,0,0,0],"id":26,"left_children":[1,3,5,7,9,-1,11,-1,-1,-1,-1,-1,-1],"loss_changes":[1.0694939E0,1.2958354E0,4.5317417E-1,1.9130125E0,2.8617368E0,0E0,8.9630497E-1,0E0,0E0,0E0,0E0,0E0,0E0],"parents":[2147483647,0,0,1,1,2,2,3,3,4,4,6,6],"right_children":[2,4,6,8,10,-1,12,-1,-1,-1,-1,-1,-1],"split_conditions":[9.444444E-1,2.3079218E1,1.0236221E-1,9.464082E-2,3.2414764E1,-6.6026226E-2,5.2388793E-1,5.8585417E-2,-1.9173053E-3,-7.773759E-2,3.6383227E-2,-3.5838533E-2,4.430123E-2],"split_indices":[4,0,5,5,0,0,1,0,0,0,0,0,0],"split_type":[0,0,0,0,0,0,0,0,0,0,0,0,0],"sum_hessian":[1.1263525E2,1.0710701E2,5.528236E0,8.9309906E1,1.7797106E1,3.0486963E0,2.4795396E0,1.9475016E1,6.983489E1,1.0122607E1,7.6744986E0,1.421217E0,1.0583227E0],"tree_param":{"num_deleted":"0","num_feature":"9","num_nodes":"13","size_leaf_vector":"1"}},{"base_weights":[-7.920243E-3,-6.0433485E-2,1.4608175E-1,1.9721495E-2,-2.8774247E-1,-1.3804653E-1,2.675737E-1,-1.3078168E-2,6.426745E-2,2.3275882E-2,-7.3910974E-2,-5.5226E-2,3.1290155E-2,7.3692195E-2,-2.0446992E-2],"categories":[],"categories_nodes":[],"categories_segments":[],"categories_sizes":[],"default_left":[0,0,0,0,0,0,0,0,0,0,0,0,0,0,0],"id":27,"left_children":[1,3,5,7,9,11,13,-1,-1,-1,-1,-1,-1,-1,-1],"loss_changes":[1.0778435E0,1.8481562E0,1.5444461E0,2.3163924E0,1.2987454E0,1.1148839E0,1.393302E0,0E0,0E0,0E0,0E0,0E0,0E0,0E0,0E0],"parents":[2147483647,0,0,1,1,2,2,3,3,4,4,5,5,6,6],"right_children":[2,4,6,8,10,12,14,-1,-1,-1,-1,-1,-1,-1,-1],"split_conditions":[3E0,1.1430062E-1,1.4436619E-1,1.0526316E-1,1.1112281E1,1.2446841E1,3.3333334E-1,-1.3078168E-2,6.426745E-2,2.3275882E-2,-7.3910974E-2,-5.5226E-2,3.1290155E-2,7.3692195E-2,-2.0446992E-2],"split_indices":[7,5,5,5,0,0,5,0,0,0,0,0,0,0,0],"split_type":[0,0,0,0,0,0,0,0,0,0,0,0,0,0,0],"sum_hessian":[1.1236226E2,8.832131E1,2.4040943E1,7.2047806E1,1.627351E1,6.7926493E0,1.7248295E1,6.2299587E1,9.748214E0,2.0284739E0,1.4245036E1,5.048977E0,1.7436725E0,1.3579989E1,3.6683044E0],"tree_param":{"num_deleted":"0","num_feature":"9","num_nodes":"15","size_leaf_vector":"1"}},{"base_weights":[-3.6700298E-3,2.8228953E-2,-2.4236296E-1,6.1836224E-2,-2.1321864E-1,-6.290602E-2,2.6554465E-2,-9.133269E-4,5.3321965E-2,1.4087652E-2,-5.5691462E-2,-3.5791893E-2,4.2923357E-2],"categories":[],"categories_nodes":[],"categories_segments":[],"categories_sizes":[],"default_left":[0,0,0,0,0,0,0,0,0,0,0,0,0],"id":28,"left_children":[1,3,5,7,9,-1,11,-1,-1,-1,-1,-1,-1],"loss_changes":[9.975234E-1,1.0779593E0,3.8293827E-1,1.5092989E0,5.0137585E-1,0E0,8.666462E-1,0E0,0E0,0E0,0E0,0E0,0E0],"parents":[2147483647,0,0,1,1,2,2,3,3,4,4,6,6],"right_children":[2,4,6,8,10,-1,12,-1,-1,-1,-1,-1,-1],"split_conditions":[9.444444E-1,3.0045918E-1,1.0236221E-1,5.2810335E-1,1.5988372E-2,-6.290602E-2,5.2388793E-1,-9.133269E-4,5.3321965E-2,1.4087652E-2,-5.5691462E-2,-3.5791893E-2,4.2923357E-2],"split_indices":[4,2,5,1,5,0,1,0,0,0,0,0,0],"split_type":[0,0,0,0,0,0,0,0,0,0,0,0,0],"sum_hessian":[1.1202512E2,1.0659685E2,5.4282765E0,1.0010245E2,6.4943967E0,2.9424717E0,2.4858046E0,8.297331E1,1.7129139E1,1.0653334E0,5.4290633E0,1.4190769E0,1.0667276E0],"tree_param":{"num_deleted":"0","num_feature":"9","num_nodes":"13","size_leaf_vector":"1"}},{"base_weights":[-6.726948E-3,9.274739E-2,-8.6569086E-2,1.6290084E-2,6.2235266E-2,-3.295151E-1,3.0489368E-2,3.6582544E-2,-2.2807442E-2,3.58884E-2,-8.7876834E-2,7.5426236E-2,-1.9778071E-2],"categories":[],"categories_nodes":[],"categories_segments":[],"categories_sizes":[],"default_left":[0,0,0,0,0,0,0,0,0,0,0,0,0],"id":29,"left_children":[1,3,5,7,-1,9,11,-1,-1,-1,-1,-1,-1],"loss_changes":[1.0477761E0,9.357554E-1,2.1693451E0,1.3878394E0,0E0,2.1585367E0,2.9852147E0,0E0,0E0,0E0,0E0,0E0,0E0],"parents":[2147483647,0,0,1,1,2,2,3,3,5,5,6,6],"right_children":[2,4,6,8,-1,10,12,-1,-1,-1,-1,-1,-1],"split_conditions":[2.5E-1,4.2555767E-1,8.428571E-1,3.8755345E-1,6.2235266E-2,1.4195584E-2,8.458371E-1,3.6582544E-2,-2.2807442E-2,3.58884E-2,-8.7876834E-2,7.5426236E-2,-1.9778071E-2],"split_indices":[4,1,6,1,0,5,6,0,0,0,0,0,0],"split_type":[0,0,0,0,0,0,0,0,0,0,0,0,0],"sum_hessian":[1.1181513E2,4.9066917E1,6.2748215E1,4.4304626E1,4.762291E0,1.4501605E1,4.824661E1,1.7673845E1,2.663078E1,1.4504051E0,1.30512E1,7.9085045E0,4.0338104E1],"tree_param":{"num_deleted":"0","num_feature":"9","num_nodes":"13","size_leaf_vector":"1"}},{"base_weights":[1.112378E-3,3.0915963E-2,-2.2543597E-1,5.9539463E-2,-2.1084975E-1,-5.988018E-2,3.1784184E-2,3.8550252E-3,6.517777E-2,1.420145E-2,-5.7235755E-2,-3.433654E-2,4.2467594E-2],"categories":[],"categories_nodes":[],"categories_segments":[],"categories_sizes":[],"default_left":[0,0,0,0,0,0,0,0,0,0,0,0,0],"id":30,"left_children":[1,3,5,7,9,-1,11,-1,-1,-1,-1,-1,-1],"loss_changes":[8.873058E-1,9.26952E-1,3.8594896E-1,1.1313086E0,5.1025397E-1,0E0,8.220587E-1,0E0,0E0,0E0,0E0,0E0,0E0],"parents":[2147483647,0,0,1,1,2,2,3,3,4,4,6,6],"right_children":[2,4,6,8,10,-1,12,-1,-1,-1,-1,-1,-1],"split_conditions":[9.444444E-1,3.0430576E-1,1.0236221E-1,5.690142E-1,1.5988372E-2,-5.988018E-2,5.2388793E-1,3.8550252E-3,6.517777E-2,1.420145E-2,-5.7235755E-2,-3.433654E-2,4.2467594E-2],"split_indices":[4,2,5,1,5,0,1,0,0,0,0,0,0],"split_type":[0,0,0,0,0,0,0,0,0,0,0,0,0],"sum_hessian":[1.1109238E2,1.0580813E2,5.284248E0,1.0134665E2,4.4614825E0,2.8304646E0,2.453783E0,9.735332E1,3.993333E0,1.0619022E0,3.3995807E0,1.3846929E0,1.0690902E0],"tree_param":{"num_deleted":"0","num_feature":"9","num_nodes":"13","size_leaf_vector":"1"}},{"base_weights":[-1.3212617E-3,1.6119528E-1,-3.9163794E-2,-1.5061967E-1,3.043057E-1,3.857333E-2,-4.0322646E-1,-4.766176E-2,1.3097549E-2,-2.2614306E-2,7.716955E-2,-7.2487257E-3,5.325082E-2,-8.936468E-2,4.3740563E-4],"categories":[],"categories_nodes":[],"categories_segments":[],"categories_sizes":[],"default_left":[0,0,0,0,0,0,0,0,0,0,0,0,0,0,0],"id":31,"left_children":[1,3,5,7,9,11,13,-1,-1,-1,-1,-1,-1,-1,-1],"loss_changes":[8.067671E-1,1.5646834E0,3.1589544E0,4.3062127E-1,1.1273103E0,1.741634E0,3.5524487E-1,0E0,0E0,0E0,0E0,0E0,0E0,0E0,0E0],"parents":[2147483647,0,0,1,1,2,2,3,3,4,4,5,5,6,6],"right_children":[2,4,6,8,10,12,14,-1,-1,-1,-1,-1,-1,-1,-1],"split_conditions":[1.956849E-2,1.5673982E-2,1.5152988E-1,3.238143E1,2.2916906E1,1.0947723E-1,9.508536E-1,-4.766176E-2,1.3097549E-2,-2.2614306E-2,7.716955E-2,-7.2487257E-3,5.325082E-2,-8.936468E-2,4.3740563E-4],"split_indices":[5,5,2,0,0,2,6,0,0,0,0,0,0,0,0],"split_type":[0,0,0,0,0,0,0,0,0,0,0,0,0,0,0],"sum_hessian":[1.1091582E2,1.4792482E1,9.612334E1,4.488354E0,1.0304129E1,8.6577255E1,9.546084E0,2.4620187E0,2.0263355E0,1.0521237E0,9.252006E0,7.149259E1,1.5084659E1,7.6969547E0,1.8491299E0],"tree_param":{"num_deleted":"0","num_feature":"9","num_nodes":"15","size_leaf_vector":"1"}},{"base_weights":[-3.1922243E-3,9.771516E-2,-6.2191833E-2,-2.0992344E-2,3.2302076E-1,-3.8440695E-1,1.138468E-2,2.080737E-2,-5.2711934E-2,8.380766E-2,-2.16217E-2,1.4429243E-2,-1.0041177E-1,4.554818E-2,-1.1049873E-2],"categories":[],"categories_nodes":[],"categories_segments":[],"categories_sizes":[],"default_left":[0,0,0,0,0,0,0,0,0,0,0,0,0,0,0],"id":32,"left_children":[1,3,5,7,9,11,13,-1,-1,-1,-1,-1,-1,-1,-1],"loss_changes":[7.789069E-1,1.3621569E0,1.9932103E0,1.5202335E0,1.1695694E0,1.1987538E0,1.2309427E0,0E0,0E0,0E0,0E0,0E0,0E0,0E0,0E0],"parents":[2147483647,0,0,1,1,2,2,3,3,4,4,5,5,6,6],"right_children":[2,4,6,8,10,12,14,-1,-1,-1,-1,-1,-1,-1,-1],"split_conditions":[6.012146E-1,5.8432305E-1,6.1516035E-1,5.58952E-1,4.0982044E-1,1.1628235E1,6.4066195E-1,2.080737E-2,-5.2711934E-2,8.380766E-2,-2.16217E-2,1.4429243E-2,-1.0041177E-1,4.554818E-2,-1.1049873E-2],"split_indices":[6,6,6,6,1,0,6,0,0,0,0,0,0,0,0],"split_type":[0,0,0,0,0,0,0,0,0,0,0,0,0,0,0],"sum_hessian":[1.1062425E2,3.839502E1,7.222923E1,3.1085283E1,7.3097353E0,5.573819E0,6.665542E1,2.428091E1,6.804372E0,6.2076635E0,1.1020718E0,1.9345483E0,3.6392708E0,1.0001941E1,5.6653473E1],"tree_param":{"num_deleted":"0","num_feature":"9","num_nodes":"15","size_leaf_vector":"1"}},{"base_weights":[-4.204531E-3,2.3298966E-2,-2.1038388E-1,1.0828826E-1,-7.653944E-2,-5.7042014E-2,3.5577066E-2,-1.5797397E-3,7.591092E-2,-6.47659E-2,8.164416E-3,-3.31626E-2,4.1992012E-2],"categories":[],"categories_nodes":[],"categories_segments":[],"categories_sizes":[],"default_left":[0,0,0,0,0,0,0,0,0,0,0,0,0],"id":33,"left_children":[1,3,5,7,9,-1,11,-1,-1,-1,-1,-1,-1],"loss_changes":[7.3083174E-1,1.059422E0,3.802629E-1,2.1198454E0,1.8381116E0,0E0,7.8447366E-1,0E0,0E0,0E0,0E0,0E0,0E0],"parents":[2147483647,0,0,1,1,2,2,3,3,4,4,6,6],"right_children":[2,4,6,8,10,-1,12,-1,-1,-1,-1,-1,-1],"split_conditions":[9.444444E-1,1.0334E-1,1.0236221E-1,8.524673E-1,1.0947723E-1,-5.7042014E-2,5.2388793E-1,-1.5797397E-3,7.591092E-2,-6.47659E-2,8.164416E-3,-3.31626E-2,4.1992012E-2],"split_indices":[4,2,5,6,2,0,1,0,0,0,0,0,0],"split_type":[0,0,0,0,0,0,0,0,0,0,0,0,0],"sum_hessian":[1.1023562E2,1.0508736E2,5.148266E0,5.6307877E1,4.8779476E1,2.7238648E0,2.424401E0,4.6220043E1,1.0087836E1,1.0037398E1,3.874208E1,1.3531415E0,1.0712595E0],"tree_param":{"num_deleted":"0","num_feature":"9","num_nodes":"13","size_leaf_vector":"1"}},{"base_weights":[-5.917054E-3,1.7408888E-1,-3.592734E-2,-1.3076513E-1,6.727262E-2,3.2399863E-2,-1.7417575E-1,1.5385972E-2,-4.3205764E-2,-8.739289E-3,5.5685557E-2,-1.0838463E-1,7.2357096E-3],"categories":[],"categories_nodes":[],"categories_segments":[],"categories_sizes":[],"default_left":[0,0,0,0,0,0,0,0,0,0,0,0,0],"id":34,"left_children":[1,3,5,7,-1,9,11,-1,-1,-1,-1,-1,-1],"loss_changes":[7.115253E-1,1.3737185E0,1.1073968E0,4.0983745E-1,0E0,1.6735189E0,3.164141E0,0E0,0E0,0E0,0E0,0E0,0E0],"parents":[2147483647,0,0,1,1,2,2,3,3,5,5,6,6],"right_children":[2,4,6,8,-1,10,12,-1,-1,-1,-1,-1,-1],"split_conditions":[6.0974047E-2,1.7156681E-1,1.1430062E-1,3.4908347E0,6.727262E-2,1.0526316E-1,1.341853E-1,1.5385972E-2,-4.3205764E-2,-8.739289E-3,5.5685557E-2,-1.0838463E-1,7.2357096E-3],"split_indices":[2,1,5,0,0,5,5,0,0,0,0,0,0],"split_type":[0,0,0,0,0,0,0,0,0,0,0,0,0],"sum_hessian":[1.1013631E2,8.877582E0,1.0125873E2,3.7584822E0,5.1190996E0,7.289023E1,2.8368498E1,1.3783522E0,2.38013E0,6.195233E1,1.09379E1,4.586991E0,2.3781506E1],"tree_param":{"num_deleted":"0","num_feature":"9","num_nodes":"13","size_leaf_vector":"1"}},{"base_weights":[-5.8644E-3,2.0612575E-2,-2.0386316E-1,9.685141E-2,-6.8630725E-2,-5.467182E-2,3.0948726E-2,-1.6319584E-3,6.852244E-2,-5.8288075E-2,7.4105025E-3,-3.2959662E-2,4.0708378E-2],"categories":[],"categories_nodes":[],"categories_segments":[],"categories_sizes":[],"default_left":[0,0,0,0,0,0,0,0,0,0,0,0,0],"id":35,"left_children":[1,3,5,7,9,-1,11,-1,-1,-1,-1,-1,-1],"loss_changes":[6.7018664E-1,8.473582E-1,3.302188E-1,1.7323745E0,1.4908948E0,0E0,7.550502E-1,0E0,0E0,0E0,0E0,0E0,0E0],"parents":[2147483647,0,0,1,1,2,2,3,3,4,4,6,6],"right_children":[2,4,6,8,10,-1,12,-1,-1,-1,-1,-1,-1],"split_conditions":[9.444444E-1,1.0334E-1,1.0236221E-1,8.524673E-1,1.0947723E-1,-5.467182E-2,5.2388793E-1,-1.6319584E-3,6.852244E-2,-5.8288075E-2,7.4105025E-3,-3.2959662E-2,4.0708378E-2],"split_indices":[4,2,5,6,2,0,1,0,0,0,0,0,0],"split_type":[0,0,0,0,0,0,0,0,0,0,0,0,0],"sum_hessian":[1.098238E2,1.0477229E2,5.0515046E0,5.6043175E1,4.872912E1,2.6311555E0,2.4203491E0,4.6039093E1,1.0004081E1,1.0022378E1,3.870674E1,1.3457241E0,1.0746251E0],"tree_param":{"num_deleted":"0","num_feature":"9","num_nodes":"13","size_leaf_vector":"1"}},{"base_weights":[-7.288938E-3,1.3369305E-1,-4.575385E-2,-1.3175055E-1,2.3903346E-1,-2.6484105E-1,2.5610493E-2,1.5065837E-2,-4.219069E-2,6.487688E-2,-1.5118062E-2,-5.320621E-3,-7.9489574E-2,-4.784068E-2,1.5927922E-2],"categories":[],"categories_nodes":[],"categories_segments":[],"categories_sizes":[],"default_left":[0,0,0,0,0,0,0,0,0,0,0,0,0,0,0],"id":36,"left_children":[1,3,5,7,9,11,13,-1,-1,-1,-1,-1,-1,-1,-1],"loss_changes":[7.102605E-1,1.1036423E0,1.6546025E0,3.9607707E-1,8.828759E-1,7.0989645E-1,1.4162513E0,0E0,0E0,0E0,0E0,0E0,0E0,0E0,0E0],"parents":[2147483647,0,0,1,1,2,2,3,3,4,4,5,5,6,6],"right_children":[2,4,6,8,10,12,14,-1,-1,-1,-1,-1,-1,-1,-1],"split_conditions":[3.8755345E-1,1.7156681E-1,4.07023E-1,3.4908347E0,1.6666667E-1,1.6666667E-1,8.3333336E-2,1.5065837E-2,-4.219069E-2,6.487688E-2,-1.5118062E-2,-5.320621E-3,-7.9489574E-2,-4.784068E-2,1.5927922E-2],"split_indices":[1,1,1,0,4,4,4,0,0,0,0,0,0,0,0],"split_type":[0,0,0,0,0,0,0,0,0,0,0,0,0,0,0],"sum_hessian":[1.0969529E2,1.8206713E1,9.148858E1,4.4602814E0,1.3746431E1,1.5817631E1,7.5670944E1,1.3692908E0,3.0909908E0,1.056904E1,3.1773915E0,9.949244E0,5.868387E0,7.015022E0,6.865592E1],"tree_param":{"num_deleted":"0","num_feature":"9","num_nodes":"15","size_leaf_vector":"1"}},{"base_weights":[-1.3604226E-2,7.261304E-2,-8.1127964E-2,2.1214361E-1,-2.6394827E-2,-2.8300056E-1,1.8076424E-2,6.6137806E-2,-2.1696303E-2,-7.482573E-2,2.2526069E-2,3.402229E-2,-7.7387415E-2,6.820009E-2,-2.0538801E-2],"categories":[],"categories_nodes":[],"categories_segments":[],"categories_sizes":[],"default_left":[0,0,0,0,0,0,0,0,0,0,0,0,0,0,0],"id":37,"left_children":[1,3,5,7,9,11,13,-1,-1,-1,-1,-1,-1,-1,-1],"loss_changes":[7.544167E-1,8.537582E-1,1.4874692E0,1.3118148E0,2.4843266E0,1.79943E0,2.5922017E0,0E0,0E0,0E0,0E0,0E0,0E0,0E0,0E0],"parents":[2147483647,0,0,1,1,2,2,3,3,4,4,5,5,6,6],"right_children":[2,4,6,8,10,12,14,-1,-1,-1,-1,-1,-1,-1,-1],"split_conditions":[2.5E-1,1.18320614E-1,8.428571E-1,1.7721573E-1,1.3385826E-1,1.4195584E-2,8.458371E-1,6.6137806E-2,-2.1696303E-2,-7.482573E-2,2.2526069E-2,3.402229E-2,-7.7387415E-2,6.820009E-2,-2.0538801E-2],"split_indices":[4,5,6,2,5,5,6,0,0,0,0,0,0,0,0],"split_type":[0,0,0,0,0,0,0,0,0,0,0,0,0,0,0],"sum_hessian":[1.0946782E2,4.774773E1,6.1720093E1,1.5075318E1,3.267241E1,1.423205E1,4.748804E1,1.0776878E1,4.29844E0,4.50172E0,2.817069E1,1.4675206E0,1.2764529E1,7.962352E0,3.9525692E1],"tree_param":{"num_deleted":"0","num_feature":"9","num_nodes":"15","size_leaf_vector":"1"}},{"base_weights":[-1.1281999E-2,1.4548485E-2,-2.0845582E-1,-2.3152515E-2,3.0027565E-1,1.206365E-2,-5.543787E-2,5.2545005E-3,-5.249613E-2,-4.3527773E-3,7.1565285E-2],"categories":[],"categories_nodes":[],"categories_segments":[],"categories_sizes":[],"default_left":[0,0,0,0,0,0,0,0,0,0,0],"id":38,"left_children":[1,3,5,7,9,-1,-1,-1,-1,-1,-1],"loss_changes":[6.352676E-1,1.3014987E0,4.3340707E-1,1.3739035E0,3.382219E-1,0E0,0E0,0E0,0E0,0E0,0E0],"parents":[2147483647,0,0,1,1,2,2,3,3,4,4],"right_children":[2,4,6,8,10,-1,-1,-1,-1,-1,-1],"split_conditions":[3.0430576E-1,5.690142E-1,1.5988372E-2,8.5642433E-1,2.988686E-1,1.206365E-2,-5.543787E-2,5.2545005E-3,-5.249613E-2,-4.3527773E-3,7.1565285E-2],"split_indices":[2,1,5,6,2,0,0,0,0,0,0],"split_type":[0,0,0,0,0,0,0,0,0,0,0],"sum_hessian":[1.0877658E2,1.04366356E2,4.410222E0,1.0031918E2,4.0471725E0,1.1474789E0,3.2627432E0,9.052632E1,9.792867E0,1.5563799E0,2.4907928E0],"tree_param":{"num_deleted":"0","num_feature":"9","num_nodes":"11","size_leaf_vector":"1"}},{"base_weights":[-1.1089349E-2,1.3132635E-1,-4.4135258E-2,-1.5029413E-1,2.654048E-1,2.695868E-2,-3.746817E-1,-4.5483626E-2,1.0728478E-2,6.573336E-2,-9.278392E-3,-5.801138E-3,3.9598506E-2,-8.35157E-2,9.828646E-4],"categories":[],"categories_nodes":[],"categories_segments":[],"categories_sizes":[],"default_left":[0,0,0,0,0,0,0,0,0,0,0,0,0,0,0],"id":39,"left_children":[1,3,5,7,9,11,13,-1,-1,-1,-1,-1,-1,-1,-1],"loss_changes":[6.158639E-1,1.3368943E0,2.5380175E0,3.484335E-1,5.557468E-1,9.6364474E-1,3.3035636E-1,0E0,0E0,0E0,0E0,0E0,0E0,0E0,0E0],"parents":[2147483647,0,0,1,1,2,2,3,3,4,4,5,5,6,6],"right_children":[2,4,6,8,10,12,14,-1,-1,-1,-1,-1,-1,-1,-1],"split_conditions":[1.956849E-2,1.5673982E-2,1.5152988E-1,3.238143E1,3.0430576E-1,1.0947723E-1,9.508536E-1,-4.5483626E-2,1.0728478E-2,6.573336E-2,-9.278392E-3,-5.801138E-3,3.9598506E-2,-8.35157E-2,9.828646E-4],"split_indices":[5,5,2,0,2,2,6,0,0,0,0,0,0,0,0],"split_type":[0,0,0,0,0,0,0,0,0,0,0,0,0,0,0],"sum_hessian":[1.0854493E2,1.4841773E1,9.3703156E1,4.396945E0,1.0444828E1,8.467555E1,9.027599E0,2.3549428E0,2.0420022E0,8.233279E0,2.2115486E0,7.005635E1,1.46192E1,7.211994E0,1.8156054E0],"tree_param":{"num_deleted":"0","num_feature":"9","num_nodes":"15","size_leaf_vector":"1"}},{"base_weights":[-1.1358805E-2,-3.8058307E-2,1.6397534E-1,2.0938607E-2,-3.348061E-1,3.2210225E-1,-1.1011141E-1,-4.922623E-3,6.696945E-2,-7.838554E-2,1.0745185E-2,1.835972E-3,6.8869084E-2,2.6204182E-2,-4.940758E-2],"categories":[],"categories_nodes":[],"categories_segments":[],"categories_sizes":[],"default_left":[0,0,0,0,0,0,0,0,0,0,0,0,0,0,0],"id":40,"left_children":[1,3,5,7,9,11,13,-1,-1,-1,-1,-1,-1,-1,-1],"loss_changes":[6.1571383E-1,2.0079906E0,1.1132855E0,1.537279E0,6.310377E-1,6.3381314E-2,7.811649E-1,0E0,0E0,0E0,0E0,0E0,0E0,0E0,0E0],"parents":[2147483647,0,0,1,1,2,2,3,3,4,4,5,5,6,6],"right_children":[2,4,6,8,10,12,14,-1,-1,-1,-1,-1,-1,-1,-1],"split_conditions":[3.2414764E1,2.3079218E1,5.0502795E-1,5.690142E-1,3.1429622E-1,1.7404512E-1,1.6268428E-2,-4.922623E-3,6.696945E-2,-7.838554E-2,1.0745185E-2,1.835972E-3,6.8869084E-2,2.6204182E-2,-4.940758E-2],"split_indices":[0,0,6,1,2,2,5,0,0,0,0,0,0,0,0],"split_type":[0,0,0,0,0,0,0,0,0,0,0,0,0,0,0],"sum_hessian":[1.0819441E2,1.0069082E2,7.5035944E0,9.17452E1,8.945616E0,3.647457E0,3.8561375E0,8.816707E1,3.578133E0,7.722819E0,1.2227967E0,1.1796001E0,2.4678566E0,1.5528351E0,2.3033023E0],"tree_param":{"num_deleted":"0","num_feature":"9","num_nodes":"15","size_leaf_vector":"1"}},{"base_weights":[-5.7350197E-3,2.3344569E-2,-1.6862506E-1,1.3154078E-1,-1.0283007E-1,-3.5711136E-1,1.5333308E-1,7.200746E-2,-9.890208E-3,2.4440154E-2,-4.239287E-2,-8.530953E-2,1.0932761E-2,-3.1331755E-2,6.0887545E-2],"categories":[],"categories_nodes":[],"categories_segments":[],"categories_sizes":[],"default_left":[0,0,0,0,0,0,0,0,0,0,0,0,0,0,0],"id":41,"left_children":[1,3,5,7,9,11,13,-1,-1,-1,-1,-1,-1,-1,-1],"loss_changes":[5.975818E-1,1.6202846E0,1.7046819E0,2.7813873E0,1.6301329E0,6.62925E-1,1.1344372E0,0E0,0E0,0E0,0E0,0E0,0E0,0E0,0E0],"parents":[2147483647,0,0,1,1,2,2,3,3,4,4,5,5,6,6],"right_children":[2,4,6,8,10,12,14,-1,-1,-1,-1,-1,-1,-1,-1],"split_conditions":[9.3333334E-1,1.0334E-1,1.0251688E-1,1.0154525E-1,1.956849E-2,1.7277958E1,8.4748775E-1,7.200746E-2,-9.890208E-3,2.4440154E-2,-4.239287E-2,-8.530953E-2,1.0932761E-2,-3.1331755E-2,6.0887545E-2],"split_indices":[4,2,5,5,5,0,6,0,0,0,0,0,0,0,0],"split_type":[0,0,0,0,0,0,0,0,0,0,0,0,0,0,0],"sum_hessian":[1.07847466E2,9.877986E1,9.067608E0,5.294964E1,4.583022E1,5.030632E0,4.036976E0,1.903106E1,3.3918583E1,1.4576573E1,3.1253645E1,3.9977531E0,1.0328788E0,1.2024914E0,2.8344846E0],"tree_param":{"num_deleted":"0","num_feature":"9","num_nodes":"15","size_leaf_vector":"1"}},{"base_weights":[-4.7276584E-3,9.309589E-2,-6.166789E-2,-1.6475244E-1,1.660708E-1,-2.9830578E-1,2.074909E-2,1.2503654E-2,-4.6883833E-2,-2.5284633E-2,4.703892E-2,1.6598476E-2,-9.488601E-2,4.9831145E-2,-1.4021585E-2],"categories":[],"categories_nodes":[],"categories_segments":[],"categories_sizes":[],"default_left":[0,0,0,0,0,0,0,0,0,0,0,0,0,0,0],"id":42,"left_children":[1,3,5,7,9,11,13,-1,-1,-1,-1,-1,-1,-1,-1],"loss_changes":[7.133789E-1,1.1638651E0,1.6309751E0,3.9128014E-1,1.1436045E0,1.8330733E0,1.6070172E0,0E0,0E0,0E0,0E0,0E0,0E0,0E0,0E0],"parents":[2147483647,0,0,1,1,2,2,3,3,4,4,5,5,6,6],"right_children":[2,4,6,8,10,12,14,-1,-1,-1,-1,-1,-1,-1,-1],"split_conditions":[6.012146E-1,1E0,1.2381441E1,8.3333336E-2,1.7156681E-1,3.9571628E-1,5.2000314E-1,1.2503654E-2,-4.6883833E-2,-2.5284633E-2,4.703892E-2,1.6598476E-2,-9.488601E-2,4.9831145E-2,-1.4021585E-2],"split_indices":[6,7,0,4,1,1,1,0,0,0,0,0,0,0,0],"split_type":[0,0,0,0,0,0,0,0,0,0,0,0,0,0,0],"sum_hessian":[1.07766136E2,3.7312813E1,7.045332E1,5.456461E0,3.1856354E1,1.1432712E1,5.902061E1,1.5209205E0,3.9355402E0,4.504863E0,2.735149E1,5.2830625E0,6.1496496E0,1.1838019E1,4.718259E1],"tree_param":{"num_deleted":"0","num_feature":"9","num_nodes":"15","size_leaf_vector":"1"}},{"base_weights":[-8.435521E-3,1.520087E-1,-3.4869026E-2,2.8559119E-1,-1.4045274E-1,-6.296034E-2,2.0205034E-1,-1.2066986E-2,7.272137E-2,1.1741092E-2,-4.3030486E-2,5.1261676E-3,-5.0979473E-2,-1.3773329E-2,5.5493157E-2],"categories":[],"categories_nodes":[],"categories_segments":[],"categories_sizes":[],"default_left":[0,0,0,0,0,0,0,0,0,0,0,0,0,0,0],"id":43,"left_children":[1,3,5,7,9,11,13,-1,-1,-1,-1,-1,-1,-1,-1],"loss_changes":[5.503716E-1,1.1220742E0,8.514447E-1,6.5022755E-1,3.1211185E-1,1.8491898E0,4.7529513E-1,0E0,0E0,0E0,0E0,0E0,0E0,0E0,0E0],"parents":[2147483647,0,0,1,1,2,2,3,3,4,4,5,5,6,6],"right_children":[2,4,6,8,10,12,14,-1,-1,-1,-1,-1,-1,-1,-1],"split_conditions":[6.0974047E-2,3.3333334E-1,1.9444445E-1,2.5E-1,3.6402876E0,1.1430062E-1,1.8296608E-1,-1.2066986E-2,7.272137E-2,1.1741092E-2,-4.3030486E-2,5.1261676E-3,-5.0979473E-2,-1.3773329E-2,5.5493157E-2],"split_indices":[2,5,5,6,0,5,1,0,0,0,0,0,0,0,0],"split_type":[0,0,0,0,0,0,0,0,0,0,0,0,0,0,0],"sum_hessian":[1.0727318E2,8.453945E0,9.881924E1,5.964539E0,2.489406E0,9.4908554E1,3.9106817E0,1.5146769E0,4.449862E0,1.2630644E0,1.2263417E0,7.086463E1,2.4043924E1,1.0406595E0,2.870022E0],"tree_param":{"num_deleted":"0","num_feature":"9","num_nodes":"15","size_leaf_vector":"1"}},{"base_weights":[-4.426503E-3,-4.965458E-2,9.8503865E-2,1.49683235E-2,-3.514863E-1,-1.0618586E-1,2.013494E-1,5.4276228E-2,-9.032158E-3,1.10547645E-2,-8.44045E-2,2.1989277E-2,-6.290695E-2,7.554811E-2,-2.1805668E-2],"categories":[],"categories_nodes":[],"categories_segments":[],"categories_sizes":[],"default_left":[0,0,0,0,0,0,0,0,0,0,0,0,0,0,0],"id":44,"left_children":[1,3,5,7,9,11,13,-1,-1,-1,-1,-1,-1,-1,-1],"loss_changes":[5.952466E-1,1.7725812E0,1.0385298E0,1.3902341E0,6.911427E-1,1.2306147E0,2.0284438E0,0E0,0E0,0E0,0E0,0E0,0E0,0E0,0E0],"parents":[2147483647,0,0,1,1,2,2,3,3,4,4,5,5,6,6],"right_children":[2,4,6,8,10,12,14,-1,-1,-1,-1,-1,-1,-1,-1],"split_conditions":[1.3666667E-1,1.18320614E-1,7.6380126E-2,1.4032944E1,6.4802304E-2,6.4802304E-2,1.042191E-1,5.4276228E-2,-9.032158E-3,1.10547645E-2,-8.44045E-2,2.1989277E-2,-6.290695E-2,7.554811E-2,-2.1805668E-2],"split_indices":[5,5,2,0,2,2,2,0,0,0,0,0,0,0,0],"split_type":[0,0,0,0,0,0,0,0,0,0,0,0,0,0,0],"sum_hessian":[1.0735655E2,7.817986E1,2.9176685E1,7.2221214E1,5.958654E0,9.648613E0,1.9528072E1,7.0451245E0,6.517609E1,1.200354E0,4.7583E0,7.0540304E0,2.594583E0,1.106778E1,8.460292E0],"tree_param":{"num_deleted":"0","num_feature":"9","num_nodes":"15","size_leaf_vector":"1"}},{"base_weights":[-4.689157E-3,1.9649468E-2,-1.8526325E-1,6.250355E-2,-9.9621505E-2,9.085695E-3,-2.3499872E-1,5.995658E-2,-2.4355776E-3,2.1835227E-2,-6.416219E-2,1.5525547E-3,-5.3081304E-2],"categories":[],"categories_nodes":[],"categories_segments":[],"categories_sizes":[],"default_left":[0,0,0,0,0,0,0,0,0,0,0,0,0],"id":45,"left_children":[1,3,5,7,9,-1,11,-1,-1,-1,-1,-1,-1],"loss_changes":[5.497546E-1,6.3458836E-1,2.7693856E-1,1.6051164E0,1.8952259E0,0E0,1.22633874E-1,0E0,0E0,0E0,0E0,0E0,0E0],"parents":[2147483647,0,0,1,1,2,2,3,3,4,4,6,6],"right_children":[2,4,6,8,10,-1,12,-1,-1,-1,-1,-1,-1],"split_conditions":[9.444444E-1,1.7466995E1,1E0,9.464082E-2,1.956849E-2,9.085695E-3,9.069787E-2,5.995658E-2,-2.4355776E-3,2.1835227E-2,-6.416219E-2,1.5525547E-3,-5.3081304E-2],"split_indices":[4,0,7,5,5,0,2,0,0,0,0,0,0],"split_type":[0,0,0,0,0,0,0,0,0,0,0,0,0],"sum_hessian":[1.0680548E2,1.0197292E2,4.832557E0,7.852016E1,2.345277E1,1.0106703E0,3.8218868E0,1.1581531E1,6.693862E1,1.4669366E1,8.783404E0,1.2544067E0,2.56748E0],"tree_param":{"num_deleted":"0","num_feature":"9","num_nodes":"13","size_leaf_vector":"1"}},{"base_weights":[-6.2306747E-3,-3.188561E-2,1.6633007E-1,2.4716156E-2,-2.8678578E-1,3.2428956E-1,-1.22880936E-1,-2.1396229E-2,2.928429E-2,3.6056027E-2,-1.0530382E-1,4.2265054E-4,7.1084045E-2,-3.819084E-2,1.22382585E-2],"categories":[],"categories_nodes":[],"categories_segments":[],"categories_sizes":[],"default_left":[0,0,0,0,0,0,0,0,0,0,0,0,0,0,0],"id":46,"left_children":[1,3,5,7,9,11,13,-1,-1,-1,-1,-1,-1,-1,-1],"loss_changes":[5.6850845E-1,1.6544557E0,1.1604505E0,1.7437813E0,3.2711806E0,1.2824202E-1,2.815442E-1,0E0,0E0,0E0,0E0,0E0,0E0,0E0,0E0],"parents":[2147483647,0,0,1,1,2,2,3,3,4,4,5,5,6,6],"right_children":[2,4,6,8,10,12,14,-1,-1,-1,-1,-1,-1,-1,-1],"split_conditions":[5.690142E-1,8.5642433E-1,2.3079218E1,9.864292E-2,9.8921984E-2,2.988686E-1,2.353456E1,-2.1396229E-2,2.928429E-2,3.6056027E-2,-1.0530382E-1,4.2265054E-4,7.1084045E-2,-3.819084E-2,1.22382585E-2],"split_indices":[1,6,0,2,2,2,0,0,0,0,0,0,0,0,0],"split_type":[0,0,0,0,0,0,0,0,0,0,0,0,0,0,0],"sum_hessian":[1.0643754E2,9.975847E1,6.679072E0,8.902125E1,1.0737221E1,3.5352862E0,3.143786E0,4.3336567E1,4.568468E1,4.4830275E0,6.2541933E0,1.2524372E0,2.2828488E0,2.0221016E0,1.1216843E0],"tree_param":{"num_deleted":"0","num_feature":"9","num_nodes":"15","size_leaf_vector":"1"}},{"base_weights":[-6.522591E-3,-3.1298775E-2,1.6049857E-1,2.0527385E-2,-2.6855418E-1,3.1160867E-1,-1.1860024E-1,-7.7764797E-3,6.0140025E-2,3.3856746E-2,-9.964057E-2,4.1323435E-4,6.828621E-2,-3.710579E-2,1.1982486E-2],"categories":[],"categories_nodes":[],"categories_segments":[],"categories_sizes":[],"default_left":[0,0,0,0,0,0,0,0,0,0,0,0,0,0,0],"id":47,"left_children":[1,3,5,7,9,11,13,-1,-1,-1,-1,-1,-1,-1,-1],"loss_changes":[5.314355E-1,1.4031531E0,1.071918E0,1.7692077E0,2.8910117E0,1.1812818E-1,2.67581E-1,0E0,0E0,0E0,0E0,0E0,0E0,0E0,0E0],"parents":[2147483647,0,0,1,1,2,2,3,3,4,4,5,5,6,6],"right_children":[2,4,6,8,10,12,14,-1,-1,-1,-1,-1,-1,-1,-1],"split_conditions":[5.690142E-1,8.5642433E-1,2.3079218E1,8.5226816E-1,9.8921984E-2,2.988686E-1,2.353456E1,-7.7764797E-3,6.0140025E-2,3.3856746E-2,-9.964057E-2,4.1323435E-4,6.828621E-2,-3.710579E-2,1.1982486E-2],"split_indices":[1,6,0,6,2,2,0,0,0,0,0,0,0,0,0],"split_type":[0,0,0,0,0,0,0,0,0,0,0,0,0,0,0],"sum_hessian":[1.0628427E2,9.963092E1,6.65335E0,8.926634E1,1.0364575E1,3.5606966E0,3.092653E0,8.0754745E1,8.5116005E0,4.4702926E0,5.8942823E0,1.2525578E0,2.3081388E0,1.963463E0,1.1291901E0],"tree_param":{"num_deleted":"0","num_feature":"9","num_nodes":"15","size_leaf_vector":"1"}},{"base_weights":[-2.7895684E-3,4.3707915E-2,-1.0238532E-1,1.5982205E-1,-8.991644E-2,-2.3209344E-1,2.0321146E-1,-9.4259085E-5,7.1647376E-2,-5.8203664E-2,1.1025294E-2,2.9143332E-2,-6.71239E-2,7.0109755E-2,-2.6107281E-2],"categories":[],"categories_nodes":[],"categories_segments":[],"categories_sizes":[],"default_left":[0,0,0,0,0,0,0,0,0,0,0,0,0,0,0],"id":48,"left_children":[1,3,5,7,9,11,13,-1,-1,-1,-1,-1,-1,-1,-1],"loss_changes":[5.8177686E-1,1.4790543E0,2.053218E0,1.5807797E0,1.5142686E0,1.7672454E0,1.304402E0,0E0,0E0,0E0,0E0,0E0,0E0,0E0,0E0],"parents":[2147483647,0,0,1,1,2,2,3,3,4,4,5,5,6,6],"right_children":[2,4,6,8,10,12,14,-1,-1,-1,-1,-1,-1,-1,-1],"split_conditions":[8.666667E-1,1.053045E-1,1.0562183E-1,9.659575E-2,4.07023E-1,9.0143636E-2,8.524673E-1,-9.4259085E-5,7.1647376E-2,-5.8203664E-2,1.1025294E-2,2.9143332E-2,-6.71239E-2,7.0109755E-2,-2.6107281E-2],"split_indices":[4,2,2,2,1,5,6,0,0,0,0,0,0,0,0],"split_type":[0,0,0,0,0,0,0,0,0,0,0,0,0,0,0],"sum_hessian":[1.05964584E2,7.6064445E1,2.990014E1,3.964982E1,3.6414627E1,2.2679323E1,7.220819E0,2.7450022E1,1.2199796E1,1.1041418E1,2.537321E1,4.0013494E0,1.8677973E1,4.6601396E0,2.5606794E0],"tree_param":{"num_deleted":"0","num_feature":"9","num_nodes":"15","size_leaf_vector":"1"}},{"base_weights":[3.5728584E-4,8.990194E-2,-5.0450146E-2,1.73294E-1,-1.818805E-1,-3.4029472E-1,3.242963E-2,5.4891195E-2,-2.0494021E-2,-6.221355E-2,2.54854E-2,-8.78219E-2,2.2609098E-2,3.765425E-2,-2.3013165E-2],"categories":[],"categories_nodes":[],"categories_segments":[],"categories_sizes":[],"default_left":[0,0,0,0,0,0,0,0,0,0,0,0,0,0,0],"id":49,"left_children":[1,3,5,7,9,11,13,-1,-1,-1,-1,-1,-1,-1,-1],"loss_changes":[5.7204044E-1,1.3464699E0,2.0384943E0,1.3954195E0,1.0182452E0,1.3348937E0,1.8612049E0,0E0,0E0,0E0,0E0,0E0,0E0,0E0,0E0],"parents":[2147483647,0,0,1,1,2,2,3,3,4,4,5,5,6,6],"right_children":[2,4,6,8,10,12,14,-1,-1,-1,-1,-1,-1,-1,-1],"split_conditions":[9.429703E-2,9.166667E-1,9.748987E-2,1.7763157E-1,1.05017506E-1,1.4814815E-1,1.7098372E1,5.4891195E-2,-2.0494021E-2,-6.221355E-2,2.54854E-2,-8.78219E-2,2.2609098E-2,3.765425E-2,-2.3013165E-2],"split_indices":[2,4,2,5,5,5,0,0,0,0,0,0,0,0,0],"split_type":[0,0,0,0,0,0,0,0,0,0,0,0,0,0,0],"sum_hessian":[1.0576675E2,3.5502083E1,7.026466E1,2.9939447E1,5.562638E0,8.717892E0,6.1546772E1,2.19388E1,8.000647E0,3.8836567E0,1.6789808E0,7.4154496E0,1.302442E0,2.8582432E1,3.296434E1],"tree_param":{"num_deleted":"0","num_feature":"9","num_nodes":"15","size_leaf_vector":"1"}},{"base_weights":[-4.303845E-3,-2.9154614E-2,1.6065317E-1,1.5685191E-2,-2.5425622E-1,3.0273414E-1,-1.1110014E-1,-3.7520144E-3,5.9170812E-2,-8.2908586E-2,2.6018996E-2,6.707744E-4,6.6071086E-2,1.2299973E-2,-3.583279E-2],"categories":[],"categories_nodes":[],"categories_segments":[],"categories_sizes":[],"default_left":[0,0,0,0,0,0,0,0,0,0,0,0,0,0,0],"id":50,"left_children":[1,3,5,7,9,11,13,-1,-1,-1,-1,-1,-1,-1,-1],"loss_changes":[5.180034E-1,1.1335475E0,9.766762E-1,1.0183694E0,1.6839207E0,1.0117662E-1,2.630155E-1,0E0,0E0,0E0,0E0,0E0,0E0,0E0,0E0],"parents":[2147483647,0,0,1,1,2,2,3,3,4,4,5,5,6,6],"right_children":[2,4,6,8,10,12,14,-1,-1,-1,-1,-1,-1,-1,-1],"split_conditions":[5.690142E-1,1.7721573E-1,2.3079218E1,1.7572702E-1,8.0610687E-1,2.988686E-1,1.5988372E-2,-3.7520144E-3,5.9170812E-2,-8.2908586E-2,2.6018996E-2,6.707744E-4,6.6071086E-2,1.2299973E-2,-3.583279E-2],"split_indices":[1,2,0,2,3,2,5,0,0,0,0,0,0,0,0],"split_type":[0,0,0,0,0,0,0,0,0,0,0,0,0,0,0],"sum_hessian":[1.0493783E2,9.835348E1,6.584354E0,8.977389E1,8.579589E0,3.575131E0,3.009223E0,8.825394E1,1.519948E0,5.5002756E0,3.0793138E0,1.2492334E0,2.3258975E0,1.1238029E0,1.8854201E0],"tree_param":{"num_deleted":"0","num_feature":"9","num_nodes":"15","size_leaf_vector":"1"}},{"base_weights":[5.2131796E-5,-2.3646967E-2,1.5472077E-1,2.054293E-2,-2.3256679E-1,2.9091108E-1,-1.074101E-1,-6.874746E-3,5.5413004E-2,3.401008E-2,-9.178691E-2,6.55863E-4,6.347349E-2,-3.5055254E-2,1.2322093E-2],"categories":[],"categories_nodes":[],"categories_segments":[],"categories_sizes":[],"default_left":[0,0,0,0,0,0,0,0,0,0,0,0,0,0,0],"id":51,"left_children":[1,3,5,7,9,11,13,-1,-1,-1,-1,-1,-1,-1,-1],"loss_changes":[4.5682836E-1,1.0456697E0,9.0360343E-1,1.4815212E0,2.574289E0,9.303558E-2,2.5670692E-1,0E0,0E0,0E0,0E0,0E0,0E0,0E0,0E0],"parents":[2147483647,0,0,1,1,2,2,3,3,4,4,5,5,6,6],"right_children":[2,4,6,8,10,12,14,-1,-1,-1,-1,-1,-1,-1,-1],"split_conditions":[5.690142E-1,8.5642433E-1,2.3079218E1,8.5226816E-1,9.8921984E-2,2.988686E-1,2.353456E1,-6.874746E-3,5.5413004E-2,3.401008E-2,-9.178691E-2,6.55863E-4,6.347349E-2,-3.5055254E-2,1.2322093E-2],"split_indices":[1,6,0,6,2,2,0,0,0,0,0,0,0,0,0],"split_type":[0,0,0,0,0,0,0,0,0,0,0,0,0,0,0],"sum_hessian":[1.0464759E2,9.808902E1,6.558568E0,8.8406364E1,9.682658E0,3.593585E0,2.9649827E0,7.9950455E1,8.455912E0,4.380098E0,5.3025603E0,1.2494273E0,2.3441577E0,1.851459E0,1.1135237E0],"tree_param":{"num_deleted":"0","num_feature":"9","num_nodes":"15","size_leaf_vector":"1"}},{"base_weights":[2.7305617E-3,2.522384E-2,-1.6832227E-1,-1.00733176E-1,5.8400765E-2,-4.600031E-2,2.9489897E-2,1.5247585E-2,-5.3405818E-2,-1.27097685E-2,2.8186826E-2,-3.0479828E-2,3.7539955E-2],"categories":[],"categories_nodes":[],"categories_segments":[],"categories_sizes":[],"default_left":[0,0,0,0,0,0,0,0,0,0,0,0,0],"id":52,"left_children":[1,3,5,7,9,-1,11,-1,-1,-1,-1,-1,-1],"loss_changes":[4.8246387E-1,5.175292E-1,2.4588525E-1,9.85066E-1,1.0277338E0,0E0,6.409379E-1,0E0,0E0,0E0,0E0,0E0,0E0],"parents":[2147483647,0,0,1,1,2,2,3,3,4,4,6,6],"right_children":[2,4,6,8,10,-1,12,-1,-1,-1,-1,-1,-1],"split_conditions":[9.444444E-1,1E0,1.0236221E-1,2.3079218E1,1.2496424E1,-4.600031E-2,5.2388793E-1,1.5247585E-2,-5.3405818E-2,-1.27097685E-2,2.8186826E-2,-3.0479828E-2,3.7539955E-2],"split_indices":[4,7,5,0,0,0,1,0,0,0,0,0,0],"split_type":[0,0,0,0,0,0,0,0,0,0,0,0,0],"sum_hessian":[1.0436051E2,9.976667E1,4.593841E0,1.6554537E1,8.321213E1,2.2614388E0,2.332402E0,1.064341E1,5.911127E0,3.4514477E1,4.8697655E1,1.2558591E0,1.0765429E0],"tree_param":{"num_deleted":"0","num_feature":"9","num_nodes":"13","size_leaf_vector":"1"}},{"base_weights":[-3.2661231E-3,8.768713E-2,-5.7224132E-2,-1.7629104E-2,2.8371388E-1,-3.3072963E-1,8.6514605E-3,1.7174376E-2,-4.617664E-2,7.512506E-2,-2.0365985E-2,1.3681318E-2,-8.7261565E-2,3.7870124E-2,-9.873111E-3],"categories":[],"categories_nodes":[],"categories_segments":[],"categories_sizes":[],"default_left":[0,0,0,0,0,0,0,0,0,0,0,0,0,0,0],"id":53,"left_children":[1,3,5,7,9,11,13,-1,-1,-1,-1,-1,-1,-1,-1],"loss_changes":[6.120791E-1,1.011677E0,1.4324064E0,1.0748883E0,9.80114E-1,9.465072E-1,8.539055E-1,0E0,0E0,0E0,0E0,0E0,0E0,0E0,0E0],"parents":[2147483647,0,0,1,1,2,2,3,3,4,4,5,5,6,6],"right_children":[2,4,6,8,10,12,14,-1,-1,-1,-1,-1,-1,-1,-1],"split_conditions":[6.012146E-1,5.8432305E-1,6.1516035E-1,5.625E-1,4.0982044E-1,1.1628235E1,6.4066195E-1,1.7174376E-2,-4.617664E-2,7.512506E-2,-2.0365985E-2,1.3681318E-2,-8.7261565E-2,3.7870124E-2,-9.873111E-3],"split_indices":[6,6,6,6,1,0,6,0,0,0,0,0,0,0,0],"split_type":[0,0,0,0,0,0,0,0,0,0,0,0,0,0,0],"sum_hessian":[1.0449475E2,3.658127E1,6.791348E1,2.9716583E1,6.8646855E0,5.37832E0,6.253516E1,2.4028044E1,5.688538E0,5.750951E0,1.1137346E0,1.8615463E0,3.5167742E0,9.696734E0,5.283843E1],"tree_param":{"num_deleted":"0","num_feature":"9","num_nodes":"15","size_leaf_vector":"1"}},{"base_weights":[-4.277177E-3,1.14704266E-1,-3.755698E-2,-1.0829843E-1,2.0753635E-1,-2.911217E-1,1.4540464E-2,1.5888212E-2,-3.761522E-2,5.9503973E-2,-1.0226457E-2,-6.773696E-2,1.0607408E-4,-2.2124572E-2,2.0420745E-2],"categories":[],"categories_nodes":[],"categories_segments":[],"categories_sizes":[],"default_left":[0,0,0,0,0,0,0,0,0,0,0,0,0,0,0],"id":54,"left_children":[1,3,5,7,9,11,13,-1,-1,-1,-1,-1,-1,-1,-1],"loss_changes":[4.9484235E-1,7.9206014E-1,1.319577E0,3.6846405E-1,6.823038E-1,2.3699677E-1,1.0963877E0,0E0,0E0,0E0,0E0,0E0,0E0,0E0,0E0],"parents":[2147483647,0,0,1,1,2,2,3,3,4,4,5,5,6,6],"right_children":[2,4,6,8,10,12,14,-1,-1,-1,-1,-1,-1,-1,-1],"split_conditions":[3.8755345E-1,1.7156681E-1,3.9885837E-1,3.4908347E0,1.053045E-1,6.131387E-1,9.864292E-2,1.5888212E-2,-3.761522E-2,5.9503973E-2,-1.0226457E-2,-6.773696E-2,1.0607408E-4,-2.2124572E-2,2.0420745E-2],"split_indices":[1,1,1,0,2,6,2,0,0,0,0,0,0,0,0],"split_type":[0,0,0,0,0,0,0,0,0,0,0,0,0,0,0],"sum_hessian":[1.0409079E2,1.7403484E1,8.668731E1,4.625641E0,1.2777843E1,6.9552107E0,7.97321E1,1.3920197E0,3.233621E0,8.365687E0,4.4121566E0,4.5934677E0,2.361743E0,3.1735603E1,4.7996494E1],"tree_param":{"num_deleted":"0","num_feature":"9","num_nodes":"15","size_leaf_vector":"1"}},{"base_weights":[-6.996055E-3,8.14019E-2,-5.6426127E-2,1.5736516E-1,-1.6604602E-1,-3.0662692E-1,1.7025607E-2,5.021959E-2,-1.8700525E-2,-5.8279335E-2,2.4765229E-2,-8.0313295E-2,2.208588E-2,2.9869238E-2,-2.1391058E-2],"categories":[],"categories_nodes":[],"categories_segments":[],"categories_sizes":[],"default_left":[0,0,0,0,0,0,0,0,0,0,0,0,0,0,0],"id":55,"left_children":[1,3,5,7,9,11,13,-1,-1,-1,-1,-1,-1,-1,-1],"loss_changes":[5.439087E-1,1.1065276E0,1.5040386E0,1.1645184E0,9.2139494E-1,1.1741662E0,1.317041E0,0E0,0E0,0E0,0E0,0E0,0E0,0E0,0E0],"parents":[2147483647,0,0,1,1,2,2,3,3,4,4,5,5,6,6],"right_children":[2,4,6,8,10,12,14,-1,-1,-1,-1,-1,-1,-1,-1],"split_conditions":[9.429703E-2,9.166667E-1,9.748987E-2,1.7763157E-1,1.05017506E-1,1.4814815E-1,1.7098372E1,5.021959E-2,-1.8700525E-2,-5.8279335E-2,2.4765229E-2,-8.0313295E-2,2.208588E-2,2.9869238E-2,-2.1391058E-2],"split_indices":[2,4,2,5,5,5,0,0,0,0,0,0,0,0,0],"split_type":[0,0,0,0,0,0,0,0,0,0,0,0,0,0,0],"sum_hessian":[1.0396609E2,3.4966274E1,6.899981E1,2.9538742E1,5.4275317E0,8.454758E0,6.054505E1,2.1497404E1,8.041338E0,3.7523115E0,1.6752205E0,7.1895285E0,1.2652295E0,2.8297834E1,3.2247215E1],"tree_param":{"num_deleted":"0","num_feature":"9","num_nodes":"15","size_leaf_vector":"1"}},{"base_weights":[-1.0205065E-2,1.1901422E-1,-4.040896E-2,-1.3698588E-1,2.4009852E-1,8.46805E-3,-3.018633E-1,-3.8653653E-2,6.5139174E-3,-8.666947E-3,5.872637E-2,-8.086938E-3,5.1298555E-2,1.4291934E-3,-6.876726E-2],"categories":[],"categories_nodes":[],"categories_segments":[],"categories_sizes":[],"default_left":[0,0,0,0,0,0,0,0,0,0,0,0,0,0,0],"id":56,"left_children":[1,3,5,7,9,11,13,-1,-1,-1,-1,-1,-1,-1,-1],"loss_changes":[4.899062E-1,1.0722667E0,1.2934957E0,1.9719571E-1,4.293959E-1,1.2355917E0,2.3079193E-1,0E0,0E0,0E0,0E0,0E0,0E0,0E0,0E0],"parents":[2147483647,0,0,1,1,2,2,3,3,4,4,5,5,6,6],"right_children":[2,4,6,8,10,12,14,-1,-1,-1,-1,-1,-1,-1,-1],"split_conditions":[1.956849E-2,1.5673982E-2,2.2916906E1,3.238143E1,4.123417E-1,1.7284176E1,5.0254667E-1,-3.8653653E-2,6.5139174E-3,-8.666947E-3,5.872637E-2,-8.086938E-3,5.1298555E-2,1.4291934E-3,-6.876726E-2],"split_indices":[5,5,0,0,1,0,6,0,0,0,0,0,0,0,0],"split_type":[0,0,0,0,0,0,0,0,0,0,0,0,0,0,0],"sum_hessian":[1.0320067E2,1.3981399E1,8.921927E1,4.0678215E0,9.913578E0,8.331942E1,5.8998485E0,2.0040634E0,2.063758E0,1.8776134E0,8.035964E0,7.658832E1,6.731098E0,1.6978186E0,4.20203E0],"tree_param":{"num_deleted":"0","num_feature":"9","num_nodes":"15","size_leaf_vector":"1"}},{"base_weights":[-8.827472E-3,1.447724E-1,-3.4721334E-2,2.669332E-1,-1.2178828E-1,2.5977714E-2,-1.5129974E-1,-1.0643865E-2,6.7919776E-2,1.28234625E-2,-3.9963555E-2,-6.898372E-3,4.243373E-2,-8.694359E-2,4.4676936E-3],"categories":[],"categories_nodes":[],"categories_segments":[],"categories_sizes":[],"default_left":[0,0,0,0,0,0,0,0,0,0,0,0,0,0,0],"id":57,"left_children":[1,3,5,7,9,11,13,-1,-1,-1,-1,-1,-1,-1,-1],"loss_changes":[5.005124E-1,9.1987026E-1,7.818713E-1,5.450064E-1,3.109972E-1,9.462261E-1,1.9374468E0,0E0,0E0,0E0,0E0,0E0,0E0,0E0,0E0],"parents":[2147483647,0,0,1,1,2,2,3,3,4,4,5,5,6,6],"right_children":[2,4,6,8,10,12,14,-1,-1,-1,-1,-1,-1,-1,-1],"split_conditions":[6.0974047E-2,3.3333334E-1,1.1430062E-1,2.5E-1,3.6402876E0,1.0526316E-1,1.341853E-1,-1.0643865E-2,6.7919776E-2,1.28234625E-2,-3.9963555E-2,-6.898372E-3,4.243373E-2,-8.694359E-2,4.4676936E-3],"split_indices":[2,5,5,6,0,5,5,0,0,0,0,0,0,0,0],"split_type":[0,0,0,0,0,0,0,0,0,0,0,0,0,0,0],"sum_hessian":[1.0320398E2,8.265269E0,9.4938705E1,5.6582174E0,2.607052E0,6.754277E1,2.7395937E1,1.5417352E0,4.1164823E0,1.2978525E0,1.3091996E0,5.713457E1,1.0408199E1,4.6956654E0,2.2700272E1],"tree_param":{"num_deleted":"0","num_feature":"9","num_nodes":"15","size_leaf_vector":"1"}},{"base_weights":[-8.493663E-3,7.41674E-2,-5.6512397E-2,-1.4234462E-1,1.3569677E-1,-3.066832E-1,1.2199949E-2,1.2568406E-2,-4.2073436E-2,-3.081885E-3,5.072723E-2,2.4740037E-2,-9.81994E-2,3.8696077E-2,-8.237032E-3],"categories":[],"categories_nodes":[],"categories_segments":[],"categories_sizes":[],"default_left":[0,0,0,0,0,0,0,0,0,0,0,0,0,0,0],"id":58,"left_children":[1,3,5,7,9,11,13,-1,-1,-1,-1,-1,-1,-1,-1],"loss_changes":[4.9006492E-1,8.0345476E-1,1.3626324E0,3.4181565E-1,7.660778E-1,1.9554605E0,7.580772E-1,0E0,0E0,0E0,0E0,0E0,0E0,0E0,0E0],"parents":[2147483647,0,0,1,1,2,2,3,3,4,4,5,5,6,6],"right_children":[2,4,6,8,10,12,14,-1,-1,-1,-1,-1,-1,-1,-1],"split_conditions":[6.012146E-1,1E0,6.167979E-1,8.3333336E-2,3.9838356E-1,1.1800576E1,6.4066195E-1,1.2568406E-2,-4.2073436E-2,-3.081885E-3,5.072723E-2,2.4740037E-2,-9.81994E-2,3.8696077E-2,-8.237032E-3],"split_indices":[6,7,6,4,1,0,6,0,0,0,0,0,0,0,0],"split_type":[0,0,0,0,0,0,0,0,0,0,0,0,0,0,0],"sum_hessian":[1.02904915E2,3.5811787E1,6.7093124E1,5.018405E0,3.0793383E1,6.9944663E0,6.009866E1,1.4390804E0,3.5793247E0,1.7309528E1,1.3483854E1,3.0833278E0,3.9111388E0,7.702114E0,5.2396545E1],"tree_param":{"num_deleted":"0","num_feature":"9","num_nodes":"15","size_leaf_vector":"1"}},{"base_weights":[-9.049522E-3,-5.8239907E-2,7.373882E-2,1.706828E-2,-3.0762646E-1,-1.8558745E-1,1.6434127E-1,-1.1334065E-2,3.496131E-2,-7.755129E-2,8.020739E-3,-6.786188E-2,2.2490455E-2,-2.5689414E-2,4.9494673E-2],"categories":[],"categories_nodes":[],"categories_segments":[],"categories_sizes":[],"default_left":[0,0,0,0,0,0,0,0,0,0,0,0,0,0,0],"id":59,"left_children":[1,3,5,7,9,11,13,-1,-1,-1,-1,-1,-1,-1,-1],"loss_changes":[5.0147617E-1,1.4839147E0,1.3946898E0,8.901549E-1,6.627042E-1,1.1468873E0,1.283541E0,0E0,0E0,0E0,0E0,0E0,0E0,0E0,0E0],"parents":[2147483647,0,0,1,1,2,2,3,3,4,4,5,5,6,6],"right_children":[2,4,6,8,10,12,14,-1,-1,-1,-1,-1,-1,-1,-1],"split_conditions":[5.2341974E-1,5.2000314E-1,7.777778E-1,4.204681E-1,1.05017506E-1,9.499757E-1,9.061918E-2,-1.1334065E-2,3.496131E-2,-7.755129E-2,8.020739E-3,-6.786188E-2,2.2490455E-2,-2.5689414E-2,4.9494673E-2],"split_indices":[1,1,4,1,5,6,2,0,0,0,0,0,0,0,0],"split_type":[0,0,0,0,0,0,0,0,0,0,0,0,0,0,0],"sum_hessian":[1.02594986E2,6.621638E1,3.637861E1,5.801343E1,8.202944E0,6.704625E0,2.9673985E1,4.389906E1,1.4114369E1,5.7311907E0,2.4717531E0,3.5097005E0,3.1949244E0,5.356747E0,2.4317236E1],"tree_param":{"num_deleted":"0","num_feature":"9","num_nodes":"15","size_leaf_vector":"1"}},{"base_weights":[-1.3364089E-2,-4.0921856E-2,1.4159225E-1,-3.2585687E-3,-2.4716114E-1,5.0247293E-2,-8.532121E-2,-1.003016E-2,3.3699974E-2,-6.4846955E-2,1.4296747E-2,1.2858852E-2,-3.0532984E-2],"categories":[],"categories_nodes":[],"categories_segments":[],"categories_sizes":[],"default_left":[0,0,0,0,0,0,0,0,0,0,0,0,0],"id":60,"left_children":[1,3,5,7,9,-1,11,-1,-1,-1,-1,-1,-1],"loss_changes":[5.3857964E-1,7.9448485E-1,6.9296354E-1,8.6976117E-1,6.20318E-1,0E0,2.3651233E-1,0E0,0E0,0E0,0E0,0E0,0E0],"parents":[2147483647,0,0,1,1,2,2,3,3,4,4,6,6],"right_children":[2,4,6,8,10,-1,12,-1,-1,-1,-1,-1,-1],"split_conditions":[1.9444445E-1,1.6384181E-1,3.3333334E-1,1.3666667E-1,1.1965725E-1,5.0247293E-2,3.6402876E0,-1.003016E-2,3.3699974E-2,-6.4846955E-2,1.4296747E-2,1.2858852E-2,-3.0532984E-2],"split_indices":[5,5,5,5,2,0,0,0,0,0,0,0,0],"split_type":[0,0,0,0,0,0,0,0,0,0,0,0,0],"sum_hessian":[1.0255484E2,9.331809E1,9.236754E0,8.7497375E1,5.8207164E0,5.5048923E0,3.7318618E0,7.429426E1,1.3203116E1,4.545762E0,1.2749541E0,1.2989172E0,2.4329448E0],"tree_param":{"num_deleted":"0","num_feature":"9","num_nodes":"13","size_leaf_vector":"1"}},{"base_weights":[-1.0124562E-2,1.06765784E-1,-4.2181097E-2,-9.13375E-2,1.8997252E-1,-2.5749794E-1,1.991824E-2,1.5776262E-2,-3.3630036E-2,5.35824E-2,-1.4193882E-2,-7.581877E-2,3.534224E-2,-4.1579403E-2,1.5394817E-2],"categories":[],"categories_nodes":[],"categories_segments":[],"categories_sizes":[],"default_left":[0,0,0,0,0,0,0,0,0,0,0,0,0,0,0],"id":61,"left_children":[1,3,5,7,9,11,13,-1,-1,-1,-1,-1,-1,-1,-1],"loss_changes":[4.6566617E-1,6.1843365E-1,1.3250602E0,3.253223E-1,6.4274746E-1,1.8337095E0,1.2417476E0,0E0,0E0,0E0,0E0,0E0,0E0,0E0,0E0],"parents":[2147483647,0,0,1,1,2,2,3,3,4,4,5,5,6,6],"right_children":[2,4,6,8,10,12,14,-1,-1,-1,-1,-1,-1,-1,-1],"split_conditions":[3.8755345E-1,1.7156681E-1,8.3333336E-2,3.4908347E0,1.6666667E-1,4.3014947E-1,4.07023E-1,1.5776262E-2,-3.3630036E-2,5.35824E-2,-1.4193882E-2,-7.581877E-2,3.534224E-2,-4.1579403E-2,1.5394817E-2],"split_indices":[1,1,4,0,4,1,1,0,0,0,0,0,0,0,0],"split_type":[0,0,0,0,0,0,0,0,0,0,0,0,0,0,0],"sum_hessian":[1.0225514E2,1.6991648E1,8.52635E1,4.7368093E0,1.2254839E1,1.2042631E1,7.322086E1,1.3891373E0,3.3476722E0,9.230665E0,3.0241742E0,1.0399641E1,1.6429902E0,9.370087E0,6.3850777E1],"tree_param":{"num_deleted":"0","num_feature":"9","num_nodes":"15","size_leaf_vector":"1"}},{"base_weights":[-1.2038889E-2,7.123605E-2,-5.996784E-2,-2.8094728E-2,2.3970395E-1,5.428374E-2,-1.7000398E-1,1.4247106E-2,-4.830369E-2,6.2408984E-2,-1.6510474E-2,4.993549E-2,-1.5033065E-2,-5.307079E-2,1.2444686E-2],"categories":[],"categories_nodes":[],"categories_segments":[],"categories_sizes":[],"default_left":[0,0,0,0,0,0,0,0,0,0,0,0,0,0,0],"id":62,"left_children":[1,3,5,7,9,11,13,-1,-1,-1,-1,-1,-1,-1,-1],"loss_changes":[4.90304E-1,8.2934165E-1,1.0553477E0,9.6907604E-1,6.7580104E-1,1.3299863E0,1.0827721E0,0E0,0E0,0E0,0E0,0E0,0E0,0E0,0E0],"parents":[2147483647,0,0,1,1,2,2,3,3,4,4,5,5,6,6],"right_children":[2,4,6,8,10,12,14,-1,-1,-1,-1,-1,-1,-1,-1],"split_conditions":[6.012146E-1,5.804878E-1,1.00250624E-1,5.625E-1,4.114334E-1,8.458371E-1,8.4910125E-1,1.4247106E-2,-4.830369E-2,6.2408984E-2,-1.6510474E-2,4.993549E-2,-1.5033065E-2,-5.307079E-2,1.2444686E-2],"split_indices":[6,6,5,6,1,6,6,0,0,0,0,0,0,0,0],"split_type":[0,0,0,0,0,0,0,0,0,0,0,0,0,0,0],"sum_hessian":[1.0214076E2,3.5535748E1,6.660501E1,2.7596718E1,7.9390306E0,3.516235E1,3.1442667E1,2.3378365E1,4.218354E0,6.7423596E0,1.1966708E0,1.0310986E1,2.4851362E1,2.1279198E1,1.0163469E1],"tree_param":{"num_deleted":"0","num_feature":"9","num_nodes":"15","size_leaf_vector":"1"}},{"base_weights":[-9.023244E-3,7.5595744E-2,-5.6065314E-2,1.4689696E-1,-1.5486947E-1,-2.5147775E-1,1.4745307E-2,4.7045242E-2,-1.7380064E-2,-5.411139E-2,2.251622E-2,-7.636115E-2,2.3172343E-2,6.539041E-2,-1.0402446E-2],"categories":[],"categories_nodes":[],"categories_segments":[],"categories_sizes":[],"default_left":[0,0,0,0,0,0,0,0,0,0,0,0,0,0,0],"id":63,"left_children":[1,3,5,7,9,11,13,-1,-1,-1,-1,-1,-1,-1,-1],"loss_changes":[4.8787254E-1,9.545474E-1,1.1118084E0,1.0082104E0,7.786698E-1,1.4579046E0,1.5551527E0,0E0,0E0,0E0,0E0,0E0,0E0,0E0,0E0],"parents":[2147483647,0,0,1,1,2,2,3,3,4,4,5,5,6,6],"right_children":[2,4,6,8,10,12,14,-1,-1,-1,-1,-1,-1,-1,-1],"split_conditions":[9.429703E-2,9.166667E-1,9.864292E-2,1.7763157E-1,1.05017506E-1,8.5487527E-1,9.974782E-2,4.7045242E-2,-1.7380064E-2,-5.411139E-2,2.251622E-2,-7.636115E-2,2.3172343E-2,6.539041E-2,-1.0402446E-2],"split_indices":[2,4,2,5,5,6,2,0,0,0,0,0,0,0,0],"split_type":[0,0,0,0,0,0,0,0,0,0,0,0,0,0,0],"sum_hessian":[1.01913704E2,3.4244713E1,6.766899E1,2.8922693E1,5.322019E0,1.1212448E1,5.6456547E1,2.0947536E1,7.9751563E0,3.633972E0,1.688047E0,7.985476E0,3.2269723E0,3.0793269E0,5.337722E1],"tree_param":{"num_deleted":"0","num_feature":"9","num_nodes":"15","size_leaf_vector":"1"}},{"base_weights":[-7.2385487E-3,-4.3646283E-2,9.856812E-2,6.6381833E-3,-2.3560803E-1,-1.0967559E-1,1.9551606E-1,-7.855256E-3,5.931563E-2,2.2100514E-2,-6.384648E-2,2.4995487E-2,-4.4399317E-2,-8.295145E-3,6.4832136E-2],"categories":[],"categories_nodes":[],"categories_segments":[],"categories_sizes":[],"default_left":[0,0,0,0,0,0,0,0,0,0,0,0,0,0,0],"id":64,"left_children":[1,3,5,7,9,11,13,-1,-1,-1,-1,-1,-1,-1,-1],"loss_changes":[4.7228292E-1,8.8280666E-1,8.52332E-1,1.1936576E0,9.004235E-1,7.1083575E-1,9.0131325E-1,0E0,0E0,0E0,0E0,0E0,0E0,0E0,0E0],"parents":[2147483647,0,0,1,1,2,2,3,3,4,4,5,5,6,6],"right_children":[2,4,6,8,10,12,14,-1,-1,-1,-1,-1,-1,-1,-1],"split_conditions":[3E0,1.4652015E-1,1.4436619E-1,1.3666667E-1,1.1112281E1,5.625E-1,7.6380126E-2,-7.855256E-3,5.931563E-2,2.2100514E-2,-6.384648E-2,2.4995487E-2,-4.4399317E-2,-8.295145E-3,6.4832136E-2],"split_indices":[7,5,5,5,0,6,2,0,0,0,0,0,0,0,0],"split_type":[0,0,0,0,0,0,0,0,0,0,0,0,0,0,0],"sum_hessian":[1.0143339E2,7.983673E1,2.159666E1,7.0914764E1,8.921964E0,6.443411E0,1.5153249E1,6.868351E1,2.2312548E0,1.1107106E0,7.8112526E0,1.7210685E0,4.7223425E0,7.7155137E0,7.437735E0],"tree_param":{"num_deleted":"0","num_feature":"9","num_nodes":"15","size_leaf_vector":"1"}},{"base_weights":[-1.4729607E-3,-2.5549693E-2,1.5365551E-1,3.4586623E-2,-1.6407456E-1,2.7607414E-1,-9.594274E-2,3.130565E-2,-9.743875E-3,-6.0101844E-2,2.7415121E-2,5.344054E-4,6.029273E-2,1.2728909E-2,-3.2992024E-2],"categories":[],"categories_nodes":[],"categories_segments":[],"categories_sizes":[],"default_left":[0,0,0,0,0,0,0,0,0,0,0,0,0,0,0],"id":65,"left_children":[1,3,5,7,9,11,13,-1,-1,-1,-1,-1,-1,-1,-1],"loss_changes":[4.5456067E-1,9.3000156E-1,7.649055E-1,9.0269667E-1,1.787247E0,8.606267E-2,2.4603844E-1,0E0,0E0,0E0,0E0,0E0,0E0,0E0,0E0],"parents":[2147483647,0,0,1,1,2,2,3,3,4,4,5,5,6,6],"right_children":[2,4,6,8,10,12,14,-1,-1,-1,-1,-1,-1,-1,-1],"split_conditions":[5.690142E-1,1.716647E1,2.3079218E1,2E0,3.2414764E1,2.988686E-1,1.5988372E-2,3.130565E-2,-9.743875E-3,-6.0101844E-2,2.7415121E-2,5.344054E-4,6.029273E-2,1.2728909E-2,-3.2992024E-2],"split_indices":[1,0,0,7,0,2,5,0,0,0,0,0,0,0,0],"split_type":[0,0,0,0,0,0,0,0,0,0,0,0,0,0,0],"sum_hessian":[1.01192406E2,9.482767E1,6.364741E0,7.1354515E1,2.3473152E1,3.5586274E0,2.8061135E0,2.5393898E1,4.5960617E1,1.6169102E1,7.3040504E0,1.2415578E0,2.3170695E0,1.0822124E0,1.723901E0],"tree_param":{"num_deleted":"0","num_feature":"9","num_nodes":"15","size_leaf_vector":"1"}},{"base_weights":[1.36461E-3,7.075904E-2,-5.5905446E-2,-5.1228136E-2,1.8640433E-1,-2.6362604E-1,4.5706235E-2,2.7437923E-2,-4.4542976E-2,-1.9921878E-2,8.206471E-2,2.9972775E-2,-7.1821444E-2,-5.0631464E-2,2.1667436E-2],"categories":[],"categories_nodes":[],"categories_segments":[],"categories_sizes":[],"default_left":[0,0,0,0,0,0,0,0,0,0,0,0,0,0,0],"id":66,"left_children":[1,3,5,7,9,11,13,-1,-1,-1,-1,-1,-1,-1,-1],"loss_changes":[4.8063126E-1,8.656583E-1,1.5217717E0,1.417452E0,2.34164E0,1.4575062E0,1.2682698E0,0E0,0E0,0E0,0E0,0E0,0E0,0E0,0E0],"parents":[2147483647,0,0,1,1,2,2,3,3,4,4,5,5,6,6],"right_children":[2,4,6,8,10,12,14,-1,-1,-1,-1,-1,-1,-1,-1],"split_conditions":[2.5E-1,8.3333336E-2,8.428571E-1,3.8755345E-1,4.07023E-1,1.4195584E-2,1.6751888E1,2.7437923E-2,-4.4542976E-2,-1.9921878E-2,8.206471E-2,2.9972775E-2,-7.1821444E-2,-5.0631464E-2,2.1667436E-2],"split_indices":[4,4,6,1,1,5,0,0,0,0,0,0,0,0,0],"split_type":[0,0,0,0,0,0,0,0,0,0,0,0,0,0,0],"sum_hessian":[1.0098349E2,4.4593716E1,5.638977E1,2.4412594E1,2.0181124E1,1.3285766E1,4.3104004E1,1.2585026E1,1.1827568E1,1.1299603E1,8.881519E0,1.4238809E0,1.1861885E1,2.1974897E0,4.0906517E1],"tree_param":{"num_deleted":"0","num_feature":"9","num_nodes":"15","size_leaf_vector":"1"}},{"base_weights":[-1.2622001E-3,6.52417E-2,-5.5623785E-2,-4.6124686E-2,1.6995832E-1,-2.3102082E-1,3.1013243E-2,2.4105448E-2,-4.217719E-2,-1.776425E-2,7.465622E-2,2.9206768E-2,-6.466148E-2,5.1582623E-2,-1.2628813E-2],"categories":[],"categories_nodes":[],"categories_segments":[],"categories_sizes":[],"default_left":[0,0,0,0,0,0,0,0,0,0,0,0,0,0,0],"id":67,"left_children":[1,3,5,7,9,11,13,-1,-1,-1,-1,-1,-1,-1,-1],"loss_changes":[4.3634096E-1,7.1247345E-1,1.0788964E0,1.1936363E0,1.9182963E0,1.2759277E0,1.2991168E0,0E0,0E0,0E0,0E0,0E0,0E0,0E0,0E0],"parents":[2147483647,0,0,1,1,2,2,3,3,4,4,5,5,6,6],"right_children":[2,4,6,8,10,12,14,-1,-1,-1,-1,-1,-1,-1,-1],"split_conditions":[2.5E-1,8.3333336E-2,8.428571E-1,1.1955135E1,4.07023E-1,1.4195584E-2,8.458371E-1,2.4105448E-2,-4.217719E-2,-1.776425E-2,7.465622E-2,2.9206768E-2,-6.466148E-2,5.1582623E-2,-1.2628813E-2],"split_indices":[4,4,6,0,1,5,6,0,0,0,0,0,0,0,0],"split_type":[0,0,0,0,0,0,0,0,0,0,0,0,0,0,0],"sum_hessian":[1.0065632E2,4.4371937E1,5.6284378E1,2.4214762E1,2.0157175E1,1.30993395E1,4.318504E1,1.3373019E1,1.08417425E1,1.1346898E1,8.810277E0,1.4305589E0,1.166878E1,7.5644746E0,3.5620564E1],"tree_param":{"num_deleted":"0","num_feature":"9","num_nodes":"15","size_leaf_vector":"1"}},{"base_weights":[2.8178638E-3,-3.5866123E-2,8.78158E-2,2.1123564E-2,-2.754663E-1,-9.908483E-2,1.8503366E-1,-7.4866163E-3,4.0156398E-2,7.550514E-3,-6.4262025E-2,1.8356165E-2,-5.4772746E-2,6.838789E-2,-1.7756307E-2],"categories":[],"categories_nodes":[],"categories_segments":[],"categories_sizes":[],"default_left":[0,0,0,0,0,0,0,0,0,0,0,0,0,0,0],"id":68,"left_children":[1,3,5,7,9,11,13,-1,-1,-1,-1,-1,-1,-1,-1],"loss_changes":[3.9354056E-1,1.1883944E0,8.617859E-1,8.7631124E-1,3.599018E-1,8.948164E-1,1.5086865E0,0E0,0E0,0E0,0E0,0E0,0E0,0E0,0E0],"parents":[2147483647,0,0,1,1,2,2,3,3,4,4,5,5,6,6],"right_children":[2,4,6,8,10,12,14,-1,-1,-1,-1,-1,-1,-1,-1],"split_conditions":[1.3666667E-1,1.1430062E-1,7.6380126E-2,1.0526316E-1,6.4802304E-2,6.4802304E-2,1.042191E-1,-7.4866163E-3,4.0156398E-2,7.550514E-3,-6.4262025E-2,1.8356165E-2,-5.4772746E-2,6.838789E-2,-1.7756307E-2],"split_indices":[5,5,2,5,2,2,2,0,0,0,0,0,0,0,0],"split_type":[0,0,0,0,0,0,0,0,0,0,0,0,0,0,0],"sum_hessian":[1.0010887E2,7.2770256E1,2.7338612E1,6.6153755E1,6.6165047E0,9.288842E0,1.804977E1,5.5862682E1,1.0291072E1,1.0701158E0,5.546389E0,6.709998E0,2.5788438E0,9.892853E0,8.156917E0],"tree_param":{"num_deleted":"0","num_feature":"9","num_nodes":"15","size_leaf_vector":"1"}},{"base_weights":[1.4732123E-3,-2.1710098E-2,1.4726448E-1,1.9241104E-2,-2.1274012E-1,2.651006E-1,-9.322242E-2,-5.5873333E-3,4.6165247E-2,3.2211628E-2,-8.563077E-2,4.882863E-4,5.791769E-2,1.2439701E-2,-3.2195114E-2],"categories":[],"categories_nodes":[],"categories_segments":[],"categories_sizes":[],"default_left":[0,0,0,0,0,0,0,0,0,0,0,0,0,0,0],"id":69,"left_children":[1,3,5,7,9,11,13,-1,-1,-1,-1,-1,-1,-1,-1],"loss_changes":[4.0286657E-1,8.497782E-1,7.1018875E-1,1.0059277E0,2.2260375E0,8.020151E-2,2.346167E-1,0E0,0E0,0E0,0E0,0E0,0E0,0E0,0E0],"parents":[2147483647,0,0,1,1,2,2,3,3,4,4,5,5,6,6],"right_children":[2,4,6,8,10,12,14,-1,-1,-1,-1,-1,-1,-1,-1],"split_conditions":[5.690142E-1,8.5642433E-1,2.3079218E1,8.5226816E-1,9.8921984E-2,2.988686E-1,1.5988372E-2,-5.5873333E-3,4.6165247E-2,3.2211628E-2,-8.563077E-2,4.882863E-4,5.791769E-2,1.2439701E-2,-3.2195114E-2],"split_indices":[1,6,0,6,2,2,5,0,0,0,0,0,0,0,0],"split_type":[0,0,0,0,0,0,0,0,0,0,0,0,0,0,0],"sum_hessian":[9.973478E1,9.3394356E1,6.340424E0,8.431292E1,9.081432E0,3.5684345E0,2.7719896E0,7.6038124E1,8.2748E0,4.242651E0,4.838782E0,1.2421385E0,2.3262959E0,1.0904375E0,1.681552E0],"tree_param":{"num_deleted":"0","num_feature":"9","num_nodes":"15","size_leaf_vector":"1"}},{"base_weights":[3.4412846E-3,1.2044352E-1,-2.539703E-2,-1.2589058E-1,2.3315214E-1,2.1330139E-2,-2.8255007E-1,-3.4575E-2,4.918626E-3,-4.7415304E-3,5.809313E-2,-4.9949004E-3,4.8675332E-2,2.9659998E-3,-6.532758E-2],"categories":[],"categories_nodes":[],"categories_segments":[],"categories_sizes":[],"default_left":[0,0,0,0,0,0,0,0,0,0,0,0,0,0,0],"id":70,"left_children":[1,3,5,7,9,11,13,-1,-1,-1,-1,-1,-1,-1,-1],"loss_changes":[3.9990935E-1,9.427794E-1,1.2146581E0,1.4033154E-1,3.566755E-1,9.9227285E-1,2.5132525E-1,0E0,0E0,0E0,0E0,0E0,0E0,0E0,0E0],"parents":[2147483647,0,0,1,1,2,2,3,3,4,4,5,5,6,6],"right_children":[2,4,6,8,10,12,14,-1,-1,-1,-1,-1,-1,-1,-1],"split_conditions":[1.956849E-2,1.5673982E-2,2.2916906E1,3.238143E1,4.2279118E-1,1.7284176E1,5.0254667E-1,-3.4575E-2,4.918626E-3,-4.7415304E-3,5.809313E-2,-4.9949004E-3,4.8675332E-2,2.9659998E-3,-6.532758E-2],"split_indices":[5,5,0,0,1,0,6,0,0,0,0,0,0,0,0],"split_type":[0,0,0,0,0,0,0,0,0,0,0,0,0,0,0],"sum_hessian":[9.945588E1,1.3385083E1,8.607079E1,3.8346252E0,9.550458E0,8.059622E1,5.474578E0,1.7883183E0,2.046307E0,2.8119166E0,6.7385416E0,7.403296E1,6.563261E0,1.5636629E0,3.9109151E0],"tree_param":{"num_deleted":"0","num_feature":"9","num_nodes":"15","size_leaf_vector":"1"}},{"base_weights":[3.1160784E-3,2.399709E-2,-1.5324959E-1,-1.01405874E-1,5.685495E-2,-4.099379E-2,2.2959432E-2,-3.601493E-2,2.715436E-2,-1.386884E-2,2.285792E-2,-2.8520642E-2,3.3882793E-2],"categories":[],"categories_nodes":[],"categories_segments":[],"categories_sizes":[],"default_left":[0,0,0,0,0,0,0,0,0,0,0,0,0],"id":71,"left_children":[1,3,5,7,9,-1,11,-1,-1,-1,-1,-1,-1],"loss_changes":[3.940099E-1,4.909942E-1,1.7686498E-1,7.1892345E-1,7.2970945E-1,0E0,5.3800577E-1,0E0,0E0,0E0,0E0,0E0,0E0],"parents":[2147483647,0,0,1,1,2,2,3,3,4,4,6,6],"right_children":[2,4,6,8,10,-1,12,-1,-1,-1,-1,-1,-1],"split_conditions":[9.444444E-1,1E0,1.0236221E-1,5.705582E-1,1.2090305E1,-4.099379E-2,5.2388793E-1,-3.601493E-2,2.715436E-2,-1.386884E-2,2.285792E-2,-2.8520642E-2,3.3882793E-2],"split_indices":[4,7,5,1,0,0,1,0,0,0,0,0,0],"split_type":[0,0,0,0,0,0,0,0,0,0,0,0,0],"sum_hessian":[9.941084E1,9.5167534E1,4.243313E0,1.5427198E1,7.974033E1,2.0186634E0,2.2246494E0,1.3392638E1,2.03456E0,2.4291618E1,5.5448715E1,1.1676389E0,1.0570107E0],"tree_param":{"num_deleted":"0","num_feature":"9","num_nodes":"13","size_leaf_vector":"1"}},{"base_weights":[-7.827829E-4,6.655136E-2,-5.6092493E-2,-3.555166E-2,1.5995385E-1,-1.8261987E-1,4.0544186E-2,2.2906296E-2,-3.6574706E-2,-1.4733481E-2,6.8415746E-2,2.8476153E-2,-4.963981E-2,-3.47636E-2,2.3928894E-2],"categories":[],"categories_nodes":[],"categories_segments":[],"categories_sizes":[],"default_left":[0,0,0,0,0,0,0,0,0,0,0,0,0,0,0],"id":72,"left_children":[1,3,5,7,9,11,13,-1,-1,-1,-1,-1,-1,-1,-1],"loss_changes":[4.4510943E-1,5.7139665E-1,8.7542E-1,9.6026444E-1,1.5282506E0,9.970031E-1,9.7680175E-1,0E0,0E0,0E0,0E0,0E0,0E0,0E0,0E0],"parents":[2147483647,0,0,1,1,2,2,3,3,4,4,5,5,6,6],"right_children":[2,4,6,8,10,12,14,-1,-1,-1,-1,-1,-1,-1,-1],"split_conditions":[2.5E-1,8.3333336E-2,5.2341974E-1,3.8921818E-1,4.07023E-1,1.4195584E-2,7.777778E-1,2.2906296E-2,-3.6574706E-2,-1.4733481E-2,6.8415746E-2,2.8476153E-2,-4.963981E-2,-3.47636E-2,2.3928894E-2],"split_indices":[4,4,1,1,1,5,4,0,0,0,0,0,0,0,0],"split_type":[0,0,0,0,0,0,0,0,0,0,0,0,0,0,0],"sum_hessian":[9.94935E1,4.3952797E1,5.5540703E1,2.3957428E1,1.9995367E1,2.0197863E1,3.534284E1,1.2970048E1,1.0987381E1,1.1368064E1,8.627303E0,1.4249152E0,1.8772947E1,6.2987676E0,2.9044071E1],"tree_param":{"num_deleted":"0","num_feature":"9","num_nodes":"15","size_leaf_vector":"1"}},{"base_weights":[6.980971E-5,4.034219E-2,-8.455623E-2,1.2149865E-1,-8.6327955E-2,-1.8915147E-1,1.549278E-1,7.215211E-2,-4.1085435E-3,2.3983257E-2,-4.934533E-2,1.2460551E-2,-7.8710146E-2,5.8030862E-2,-2.5864149E-2],"categories":[],"categories_nodes":[],"categories_segments":[],"categories_sizes":[],"default_left":[0,0,0,0,0,0,0,0,0,0,0,0,0,0,0],"id":73,"left_children":[1,3,5,7,9,11,13,-1,-1,-1,-1,-1,-1,-1,-1],"loss_changes":[4.0530267E-1,9.331143E-1,1.2536364E0,1.884114E0,1.5300382E0,1.8484621E0,1.0346222E0,0E0,0E0,0E0,0E0,0E0,0E0,0E0,0E0],"parents":[2147483647,0,0,1,1,2,2,3,3,4,4,5,5,6,6],"right_children":[2,4,6,8,10,12,14,-1,-1,-1,-1,-1,-1,-1,-1],"split_conditions":[8.666667E-1,1.692507E1,1.0562183E-1,1.18320614E-1,1.956849E-2,9.5475845E-2,8.524673E-1,7.215211E-2,-4.1085435E-3,2.3983257E-2,-4.934533E-2,1.2460551E-2,-7.8710146E-2,5.8030862E-2,-2.5864149E-2],"split_indices":[4,0,2,5,5,2,6,0,0,0,0,0,0,0,0],"split_type":[0,0,0,0,0,0,0,0,0,0,0,0,0,0,0],"sum_hessian":[9.891456E1,7.056603E1,2.8348526E1,4.3258774E1,2.7307259E1,2.1193792E1,7.154732E0,1.0378469E1,3.2880306E1,1.3050497E1,1.4256762E1,1.2620196E1,8.573597E0,4.707466E0,2.4472659E0],"tree_param":{"num_deleted":"0","num_feature":"9","num_nodes":"15","size_leaf_vector":"1"}},{"base_weights":[8.072662E-4,-3.973351E-2,8.9296E-2,1.1018371E-2,-2.583768E-1,-9.3796425E-2,1.8372591E-1,3.932456E-2,-7.6034293E-3,6.8717333E-3,-6.0514357E-2,1.7118605E-2,-5.119985E-2,6.340911E-2,-1.5601406E-2],"categories":[],"categories_nodes":[],"categories_segments":[],"categories_sizes":[],"default_left":[0,0,0,0,0,0,0,0,0,0,0,0,0,0,0],"id":74,"left_children":[1,3,5,7,9,11,13,-1,-1,-1,-1,-1,-1,-1,-1],"loss_changes":[4.2491704E-1,9.3138516E-1,8.1528115E-1,7.6308167E-1,3.0757248E-1,7.7993417E-1,1.2213514E0,0E0,0E0,0E0,0E0,0E0,0E0,0E0,0E0],"parents":[2147483647,0,0,1,1,2,2,3,3,4,4,5,5,6,6],"right_children":[2,4,6,8,10,12,14,-1,-1,-1,-1,-1,-1,-1,-1],"split_conditions":[1.3666667E-1,1.18320614E-1,7.6380126E-2,1.6603676E1,6.4802304E-2,6.4802304E-2,1.0562183E-1,3.932456E-2,-7.6034293E-3,6.8717333E-3,-6.0514357E-2,1.7118605E-2,-5.119985E-2,6.340911E-2,-1.5601406E-2],"split_indices":[5,5,2,0,2,2,2,0,0,0,0,0,0,0,0],"split_type":[0,0,0,0,0,0,0,0,0,0,0,0,0,0,0],"sum_hessian":[9.8556725E1,7.136904E1,2.7187685E1,6.563076E1,5.738276E0,9.273725E0,1.7913961E1,7.4257E0,5.8205063E1,1.0446252E0,4.6936507E0,6.646292E0,2.6274323E0,1.04683485E1,7.445613E0],"tree_param":{"num_deleted":"0","num_feature":"9","num_nodes":"15","size_leaf_vector":"1"}},{"base_weights":[-3.264874E-6,1.999368E-2,-1.4737771E-1,-1.6741693E-2,1.1744E-1,-3.97329E-2,2.4385737E-2,1.0450474E-2,-3.2102946E-2,5.5995733E-2,-1.1761213E-2,-2.6773203E-2,3.2289274E-2],"categories":[],"categories_nodes":[],"categories_segments":[],"categories_sizes":[],"default_left":[0,0,0,0,0,0,0,0,0,0,0,0,0],"id":75,"left_children":[1,3,5,7,9,-1,11,-1,-1,-1,-1,-1,-1],"loss_changes":[3.4800932E-1,3.9188334E-1,1.7273203E-1,9.197456E-1,1.0158777E0,0E0,4.7967324E-1,0E0,0E0,0E0,0E0,0E0,0E0],"parents":[2147483647,0,0,1,1,2,2,3,3,4,4,6,6],"right_children":[2,4,6,8,10,-1,12,-1,-1,-1,-1,-1,-1],"split_conditions":[9.444444E-1,5.2810335E-1,1.0236221E-1,5.2000314E-1,9.951727E-2,-3.97329E-2,5.2388793E-1,1.0450474E-2,-3.2102946E-2,5.5995733E-2,-1.1761213E-2,-2.6773203E-2,3.2289274E-2],"split_indices":[4,1,5,1,2,0,1,0,0,0,0,0,0],"split_type":[0,0,0,0,0,0,0,0,0,0,0,0,0],"sum_hessian":[9.808922E1,9.398053E1,4.108688E0,7.426574E1,1.9714787E1,1.9579087E0,2.1507795E0,5.4485012E1,1.978073E1,7.1943254E0,1.2520461E1,1.1063989E0,1.0443804E0],"tree_param":{"num_deleted":"0","num_feature":"9","num_nodes":"13","size_leaf_vector":"1"}},{"base_weights":[-1.0793197E-3,-2.3498986E-2,1.4053442E-1,1.373782E-2,-2.1239658E-1,2.527785E-1,-8.946519E-2,-3.8385733E-3,5.3204656E-2,-7.113454E-2,2.2273587E-2,5.669719E-4,5.504909E-2,-3.091468E-2,1.1872349E-2],"categories":[],"categories_nodes":[],"categories_segments":[],"categories_sizes":[],"default_left":[0,0,0,0,0,0,0,0,0,0,0,0,0,0,0],"id":76,"left_children":[1,3,5,7,9,11,13,-1,-1,-1,-1,-1,-1,-1,-1],"loss_changes":[3.7482435E-1,7.431885E-1,6.4299357E-1,8.335527E-1,1.1996653E0,6.781083E-2,2.1463916E-1,0E0,0E0,0E0,0E0,0E0,0E0,0E0,0E0],"parents":[2147483647,0,0,1,1,2,2,3,3,4,4,5,5,6,6],"right_children":[2,4,6,8,10,12,14,-1,-1,-1,-1,-1,-1,-1,-1],"split_conditions":[5.690142E-1,1.7721573E-1,2.3079218E1,1.7572702E-1,8.0610687E-1,2.988686E-1,3.1429622E-1,-3.8385733E-3,5.3204656E-2,-7.113454E-2,2.2273587E-2,5.669719E-4,5.504909E-2,-3.091468E-2,1.1872349E-2],"split_indices":[1,2,0,2,3,2,2,0,0,0,0,0,0,0,0],"split_type":[0,0,0,0,0,0,0,0,0,0,0,0,0,0,0],"sum_hessian":[9.765588E1,9.150918E1,6.146704E0,8.418649E1,7.3226895E0,3.465223E0,2.6814814E0,8.2638916E1,1.5475739E0,4.393077E0,2.9296126E0,1.2146053E0,2.2506175E0,1.5968024E0,1.084679E0],"tree_param":{"num_deleted":"0","num_feature":"9","num_nodes":"15","size_leaf_vector":"1"}},{"base_weights":[2.5033357E-3,2.1841735E-2,-1.4183223E-1,-1.3107169E-2,1.14347726E-1,-3.8484644E-2,2.475843E-2,1.1414874E-2,-2.3649683E-2,5.1967215E-2,-9.7029E-3,-2.6209682E-2,3.176786E-2],"categories":[],"categories_nodes":[],"categories_segments":[],"categories_sizes":[],"default_left":[0,0,0,0,0,0,0,0,0,0,0,0,0],"id":77,"left_children":[1,3,5,7,9,-1,11,-1,-1,-1,-1,-1,-1],"loss_changes":[3.308626E-1,3.4931E-1,1.6587314E-1,6.8751436E-1,8.2229865E-1,0E0,4.6151608E-1,0E0,0E0,0E0,0E0,0E0,0E0],"parents":[2147483647,0,0,1,1,2,2,3,3,4,4,6,6],"right_children":[2,4,6,8,10,-1,12,-1,-1,-1,-1,-1,-1],"split_conditions":[9.444444E-1,5.2810335E-1,1.0236221E-1,1.6883677E1,9.951727E-2,-3.8484644E-2,5.2388793E-1,1.1414874E-2,-2.3649683E-2,5.1967215E-2,-9.7029E-3,-2.6209682E-2,3.176786E-2],"split_indices":[4,1,5,0,2,0,1,0,0,0,0,0,0],"split_type":[0,0,0,0,0,0,0,0,0,0,0,0,0],"sum_hessian":[9.743837E1,9.340984E1,4.0285196E0,7.402586E1,1.9383984E1,1.9006579E0,2.127862E0,4.7135006E1,2.689086E1,7.093161E0,1.2290822E1,1.0888015E0,1.0390604E0],"tree_param":{"num_deleted":"0","num_feature":"9","num_nodes":"13","size_leaf_vector":"1"}},{"base_weights":[1.746408E-3,-6.1452698E-2,5.400795E-2,-1.575515E-1,5.394599E-2,1.3411525E-1,-1.5273136E-1,-6.507587E-2,1.9069169E-2,-2.747342E-2,4.4474404E-2,-6.9199644E-2,2.7850172E-2],"categories":[],"categories_nodes":[],"categories_segments":[],"categories_sizes":[],"default_left":[0,0,0,0,0,0,0,0,0,0,0,0,0],"id":78,"left_children":[1,3,5,7,-1,9,11,-1,-1,-1,-1,-1,-1],"loss_changes":[3.8638514E-1,2.1143146E0,1.2623628E0,2.3243754E0,0E0,1.5357463E0,1.7519581E0,0E0,0E0,0E0,0E0,0E0,0E0],"parents":[2147483647,0,0,1,1,2,2,3,3,5,5,6,6],"right_children":[2,4,6,8,-1,10,12,-1,-1,-1,-1,-1,-1],"split_conditions":[9.864292E-2,8.5487527E-1,8.54096E-1,1.3461539E-1,5.394599E-2,3.9866886E-1,5.690142E-1,-6.507587E-2,1.9069169E-2,-2.747342E-2,4.4474404E-2,-6.9199644E-2,2.7850172E-2],"split_indices":[2,6,6,5,0,1,1,0,0,0,0,0,0],"split_type":[0,0,0,0,0,0,0,0,0,0,0,0,0],"sum_hessian":[9.693561E1,4.3080418E1,5.3855194E1,3.7454933E1,5.625484E0,4.134693E1,1.2508265E1,2.0791325E1,1.6663609E1,8.778704E0,3.2568226E1,6.4132643E0,6.0950003E0],"tree_param":{"num_deleted":"0","num_feature":"9","num_nodes":"13","size_leaf_vector":"1"}},{"base_weights":[-2.3347848E-4,-2.08526E-2,1.2820081E-1,3.2530632E-2,-1.4517306E-1,2.3873565E-1,-9.033009E-2,3.1412493E-2,-1.0573875E-2,-5.1788956E-2,2.0704452E-2,1.6074999E-4,5.2351493E-2,1.1536173E-2,-3.078713E-2],"categories":[],"categories_nodes":[],"categories_segments":[],"categories_sizes":[],"default_left":[0,0,0,0,0,0,0,0,0,0,0,0,0,0,0],"id":79,"left_children":[1,3,5,7,9,11,13,-1,-1,-1,-1,-1,-1,-1,-1],"loss_changes":[3.091586E-1,7.1417993E-1,6.058066E-1,9.176295E-1,1.1740603E0,7.1688116E-2,2.0816971E-1,0E0,0E0,0E0,0E0,0E0,0E0,0E0,0E0],"parents":[2147483647,0,0,1,1,2,2,3,3,4,4,5,5,6,6],"right_children":[2,4,6,8,10,12,14,-1,-1,-1,-1,-1,-1,-1,-1],"split_conditions":[5.690142E-1,1.716647E1,2.3079218E1,2E0,3.2414764E1,2.988686E-1,1.5988372E-2,3.1412493E-2,-1.0573875E-2,-5.1788956E-2,2.0704452E-2,1.6074999E-4,5.2351493E-2,1.1536173E-2,-3.078713E-2],"split_indices":[1,0,0,7,0,2,5,0,0,0,0,0,0,0,0],"split_type":[0,0,0,0,0,0,0,0,0,0,0,0,0,0,0],"sum_hessian":[9.664797E1,9.049596E1,6.1520185E0,6.847577E1,2.2020184E1,3.4715214E0,2.6804972E0,2.444225E1,4.403352E1,1.48256855E1,7.1944985E0,1.2192829E0,2.2522385E0,1.0856507E0,1.5948466E0],"tree_param":{"num_deleted":"0","num_feature":"9","num_nodes":"15","size_leaf_vector":"1"}},{"base_weights":[1.9050515E-3,2.0101594E-2,-1.3372543E-1,-1.54966405E-2,1.1601505E-1,-3.7105735E-2,2.7855594E-2,1.1195612E-2,-2.441879E-2,-1.9727085E-2,4.129599E-2,-2.4671303E-2,3.0793542E-2],"categories":[],"categories_nodes":[],"categories_segments":[],"categories_sizes":[],"default_left":[0,0,0,0,0,0,0,0,0,0,0,0,0],"id":80,"left_children":[1,3,5,7,9,-1,11,-1,-1,-1,-1,-1,-1],"loss_changes":[2.8971538E-1,3.6826402E-1,1.6806664E-1,7.05628E-1,7.657943E-1,0E0,4.2010352E-1,0E0,0E0,0E0,0E0,0E0,0E0],"parents":[2147483647,0,0,1,1,2,2,3,3,4,4,6,6],"right_children":[2,4,6,8,10,-1,12,-1,-1,-1,-1,-1,-1],"split_conditions":[9.444444E-1,5.2810335E-1,1.0236221E-1,1.6883677E1,7.777778E-1,-3.7105735E-2,5.2388793E-1,1.1195612E-2,-2.441879E-2,-1.9727085E-2,4.129599E-2,-2.4671303E-2,3.0793542E-2],"split_indices":[4,1,5,0,4,0,1,0,0,0,0,0,0],"split_type":[0,0,0,0,0,0,0,0,0,0,0,0,0],"sum_hessian":[9.64967E1,9.25922E1,3.904498E0,7.364369E1,1.8948511E1,1.834326E0,2.070172E0,4.6927147E1,2.6716543E1,5.3503366E0,1.3598174E1,1.0407665E0,1.0294056E0],"tree_param":{"num_deleted":"0","num_feature":"9","num_nodes":"13","size_leaf_vector":"1"}},{"base_weights":[-6.2337186E-4,-5.7037752E-2,4.6324786E-2,-1.4410473E-1,4.886539E-2,6.2472876E-2,-1.8315723E-2,1.4908805E-2,-6.567722E-2,2.4096726E-2,-2.3135474E-2],"categories":[],"categories_nodes":[],"categories_segments":[],"categories_sizes":[],"default_left":[0,0,0,0,0,0,0,0,0,0,0],"id":81,"left_children":[1,3,5,7,-1,-1,9,-1,-1,-1,-1],"loss_changes":[3.0735946E-1,1.7338424E0,